/* Generated by Edge Impulse
*
* Permission is hereby granted, free of charge, to any person obtaining a copy
* of this software and associated documentation files (the "Software"), to deal
* in the Software without restriction, including without limitation the rights
* to use, copy, modify, merge, publish, distribute, sublicense, and/or sell
* copies of the Software, and to permit persons to whom the Software is
* furnished to do so, subject to the following conditions:
*
* The above copyright notice and this permission notice shall be included in
* all copies or substantial portions of the Software.
*
* THE SOFTWARE IS PROVIDED "AS IS", WITHOUT WARRANTY OF ANY KIND, EXPRESS OR
* IMPLIED, INCLUDING BUT NOT LIMITED TO THE WARRANTIES OF MERCHANTABILITY,
* FITNESS FOR A PARTICULAR PURPOSE AND NONINFRINGEMENT. IN NO EVENT SHALL THE
* AUTHORS OR COPYRIGHT HOLDERS BE LIABLE FOR ANY CLAIM, DAMAGES OR OTHER
* LIABILITY, WHETHER IN AN ACTION OF CONTRACT, TORT OR OTHERWISE, ARISING FROM,
* OUT OF OR IN CONNECTION WITH THE SOFTWARE OR THE USE OR OTHER DEALINGS IN THE
* SOFTWARE.
*/
// Generated on: 22.04.2021 20:32:05

#include <stdio.h>
#include <stdlib.h>
#include <vector>
#include "edge-impulse-sdk/tensorflow/lite/c/builtin_op_data.h"
#include "edge-impulse-sdk/tensorflow/lite/c/common.h"
#include "edge-impulse-sdk/tensorflow/lite/micro/kernels/micro_ops.h"

#if EI_CLASSIFIER_PRINT_STATE
#if defined(__cplusplus) && EI_C_LINKAGE == 1
extern "C" {
    extern void ei_printf(const char *format, ...);
}
#else
extern void ei_printf(const char *format, ...);
#endif
#endif

#if defined __GNUC__
#define ALIGN(X) __attribute__((aligned(X)))
#elif defined _MSC_VER
#define ALIGN(X) __declspec(align(X))
#elif defined __TASKING__
#define ALIGN(X) __align(X)
#endif

namespace {

constexpr int kTensorArenaSize = 15808;

#if defined(EI_CLASSIFIER_ALLOCATION_STATIC)
uint8_t tensor_arena[kTensorArenaSize] ALIGN(16);
#elif defined(EI_CLASSIFIER_ALLOCATION_STATIC_HIMAX)
#pragma Bss(".tensor_arena")
uint8_t tensor_arena[kTensorArenaSize] ALIGN(16);
#pragma Bss()
#elif defined(EI_CLASSIFIER_ALLOCATION_STATIC_HIMAX_GNU)
uint8_t tensor_arena[kTensorArenaSize] ALIGN(16) __attribute__((section(".tensor_arena")));
#else
#define EI_CLASSIFIER_ALLOCATION_HEAP 1
uint8_t* tensor_arena = NULL;
#endif

static uint8_t* tensor_boundary;
static uint8_t* current_location;

template <int SZ, class T> struct TfArray {
  int sz; T elem[SZ];
};
enum used_operators_e {
  OP_RESHAPE, OP_CONV_2D, OP_ADD, OP_MAX_POOL_2D, OP_FULLY_CONNECTED, OP_SOFTMAX,  OP_LAST
};
struct TensorInfo_t { // subset of TfLiteTensor used for initialization from constant memory
  TfLiteAllocationType allocation_type;
  TfLiteType type;
  void* data;
  TfLiteIntArray* dims;
  size_t bytes;
};
struct NodeInfo_t { // subset of TfLiteNode used for initialization from constant memory
  struct TfLiteIntArray* inputs;
  struct TfLiteIntArray* outputs;
  void* builtin_data;
  used_operators_e used_op_index;
};

TfLiteContext ctx{};
TfLiteTensor tflTensors[31];
TfLiteRegistration registrations[OP_LAST];
TfLiteNode tflNodes[15];

const TfArray<2, int> tensor_dimension0 = { 2, { 1,1024 } };
const ALIGN(8) int32_t tensor_data1[2] = { -1, 160, };
const TfArray<1, int> tensor_dimension1 = { 1, { 2 } };
const ALIGN(8) float tensor_data2[30] = { -0.020618109032511711, 0.035023737698793411, -0.026248876005411148, -0.014125705696642399, 0.010844383388757706, -0.015987381339073181, 0.014024470001459122, -0.014194232411682606, 0.048476479947566986, -0.06186983734369278, -0.031090494245290756, 0.0473506860435009, -0.013740974478423595, 0.021849215030670166, 0.0020916077774018049, -0.019925927743315697, 0.033508170396089554, -0.012577284127473831, 0.021787675097584724, -0.043285083025693893, -0.0098743578419089317, 0.08553680032491684, 0, 0.022627566009759903, 0.044526875019073486, 0.0015383278951048851, 0.013017529621720314, 0.049873325973749161, -0.028906760737299919, -0.0079170446842908859, };
const TfArray<1, int> tensor_dimension2 = { 1, { 30 } };
const ALIGN(8) float tensor_data3[10] = { 0.031970296055078506, 0.017731824889779091, -0.010732363909482956, 0.025565680116415024, 0.022083206102252007, 0.035161569714546204, 0.04778694361448288, 0.017171274870634079, 0.053634744137525558, 0.029658852145075798, };
const TfArray<1, int> tensor_dimension3 = { 1, { 10 } };
const ALIGN(8) float tensor_data4[2] = { -0.0070475107058882713, 0.0070475083775818348, };
const TfArray<1, int> tensor_dimension4 = { 1, { 2 } };
const ALIGN(8) float tensor_data5[2*160] = { 
  -0.14669151604175568, -0.1875833123922348, -0.020859720185399055, -0.1133652999997139, -0.0954609215259552, -0.036249309778213501, 0.21736985445022583, 0.15322183072566986, 0.1325458288192749, -0.040340445935726166, -0.12923865020275116, 0.081140287220478058, -0.11447297036647797, 0.099814295768737793, -0.12844222784042358, 0.060466606169939041, 0.13011167943477631, 0.078377991914749146, 0.1886574774980545, -0.24045318365097046, -0.01372169703245163, 0.19342248141765594, -0.021039737388491631, 0.12796264886856079, -0.24975943565368652, -0.11146124452352524, 0.26122209429740906, -0.1076798215508461, 0.31775176525115967, 0.038953714072704315, -0.060339678078889847, 0.18551196157932281, 0.12154407054185867, 0.17839197814464569, -0.2194104939699173, -0.11289660632610321, 0.10286716371774673, -0.17919759452342987, 0.28402063250541687, 0.028296371921896935, -0.18086051940917969, 0.023096390068531036, -0.0056022955104708672, 0.11859718710184097, -0.21889844536781311, -0.08662298321723938, 0.2352205216884613, 0.036078579723834991, 0.15117451548576355, -0.21791209280490875, 0.095627538859844208, -0.0045153778046369553, 0.16661718487739563, 0.16408264636993408, -0.19893884658813477, 0.084724463522434235, 0.16883346438407898, -0.18321798741817474, 0.18328754603862762, 0.0093806199729442596, 0.013933115638792515, -0.12319409847259521, 0.023909121751785278, 0.1756080687046051, -0.097240105271339417, 0.031459871679544449, 0.096259854733943939, -0.17217986285686493, 0.22401824593544006, -0.20833280682563782, -0.025976018980145454, 0.17515306174755096, -0.05731264129281044, -0.13231045007705688, -0.25184375047683716, 0.10128062963485718, 0.01452229730784893, 0.13337025046348572, 0.04170435294508934, -0.17519304156303406, -0.12293184548616409, 0.0048745498061180115, 0.065146893262863159, -0.020456241443753242, -0.19787472486495972, 0.01976071298122406, 0.15531158447265625, -0.10655276477336884, 0.089526794850826263, -0.17670254409313202, -0.20962709188461304, -0.11322491616010666, -0.15473572909832001, 0.083386026322841644, -0.097505427896976471, 0.22339227795600891, 0.18653017282485962, 0.12067799270153046, 0.24646987020969391, -0.018413962796330452, -0.074629515409469604, -0.15618351101875305, 0.1920866072177887, -0.0042444937862455845, -0.059713542461395264, 0.13215325772762299, 0.096394307911396027, 0.11663440614938736, 0.035031840205192566, -0.029848897829651833, -0.15814068913459778, -0.056799806654453278, 0.13863328099250793, 0.058673221617937088, -0.17978969216346741, 0.14782482385635376, -0.058320142328739166, -0.13822284340858459, 0.049036815762519836, -0.1363951712846756, -0.021804491057991982, -0.087143927812576294, 0.0071371393278241158, 0.2275177538394928, -0.081450968980789185, 0.12579494714736938, 0.24697898328304291, 0.14974108338356018, 0.13463412225246429, -0.19450287520885468, -0.04353661835193634, 0.050450984388589859, 0.10068487375974655, 0.068742670118808746, -0.022220384329557419, 0.24138595163822174, 0.22206971049308777, -0.033075045794248581, 0.26793065667152405, -0.056425392627716064, -0.0082749342545866966, 0.089735731482505798, 0.037793073803186417, 0.19066518545150757, -0.27379864454269409, -0.076229386031627655, 0.26257303357124329, 0.11503095924854279, 0.16183213889598846, -0.076038315892219543, -0.21345385909080505, 0.11066896468400955, 0.018977463245391846, 0.035998344421386719, -0.10973399877548218, 0.23356705904006958, 0.010493815876543522, 0.034373819828033447, 0.31753239035606384, -0.20240698754787445, 
  0.20115065574645996, -0.17390003800392151, -0.013791712932288647, 0.10121629387140274, 0.26129937171936035, 0.010903605259954929, -0.042983785271644592, -0.039377260953187943, -0.086722388863563538, 0.10695745795965195, 0.14145678281784058, -0.024592852219939232, 0.10452717542648315, -0.087545216083526611, 0.059445090591907501, -0.26304736733436584, 0.0081646144390106201, -0.20797109603881836, 0.033664174377918243, 0.26696467399597168, -0.079934723675251007, -0.13331913948059082, -0.090581625699996948, -0.18727834522724152, -0.020213643088936806, 0.0038274892140179873, 0.078160852193832397, -0.017155075445771217, -0.27996429800987244, 0.049941349774599075, 0.12612071633338928, 0.044993460178375244, -0.14425717294216156, -0.13954484462738037, 0.25190594792366028, -0.045588415116071701, -0.087898589670658112, -0.028517609462141991, -0.15128086507320404, -0.095926918089389801, -0.028213696554303169, 0.12482769042253494, 0.084386937320232391, 0.13300120830535889, 0.10310202091932297, -0.10032106935977936, -0.096655279397964478, 0.0579228475689888, -0.0087973494082689285, 0.23303857445716858, 0.025488352403044701, 0.1688133031129837, -0.15169063210487366, -0.16913725435733795, 0.13083766400814056, 0.095792725682258606, -0.054234590381383896, -0.069870717823505402, 0.026574505493044853, -0.026198640465736389, -0.0069223050959408283, -0.15980373322963715, -0.0022927699610590935, -0.060644358396530151, -0.010344266891479492, 0.07290271669626236, -0.16373902559280396, -0.19754523038864136, -0.25398242473602295, 0.041055519133806229, 0.17466537654399872, -0.034049957990646362, 0.037528708577156067, -0.16365034878253937, 0.10247364640235901, -0.084129855036735535, -0.11326255649328232, -0.042106654495000839, -0.20142295956611633, 0.096195489168167114, -0.041544776409864426, 0.065645523369312286, 0.15096379816532135, -0.13361711800098419, 0.07633596658706665, -0.13388696312904358, 0.086868651211261749, 0.006797371432185173, -0.26423987746238708, -0.079454280436038971, 0.18388523161411285, -0.15330585837364197, 0.078352831304073334, -0.0025034709833562374, 0.13084495067596436, -0.21234859526157379, -0.07173340767621994, 0.09891277551651001, 0.065615668892860413, 0.055453408509492874, 0.05602404847741127, 0.14466622471809387, 0.073820628225803375, -0.010954312048852444, 0.24143324792385101, -0.078276850283145905, -0.10623634606599808, -0.078351885080337524, -0.27379918098449707, -0.05994458869099617, 0.21561704576015472, 0.059891588985919952, -0.057069674134254456, -0.18760392069816589, 0.21120505034923553, -0.17830409109592438, -0.074509330093860626, -0.15400798618793488, -0.046723734587430954, 0.24030740559101105, 0.18495327234268188, 0.10414069145917892, 0.050108686089515686, -0.059494171291589737, 0.0075220535509288311, -0.23296786844730377, -0.15760232508182526, -0.17199641466140747, -0.16018117964267731, 0.18370430171489716, 0.10392413288354874, 0.15107055008411407, 0.0066564101725816727, -0.16840484738349915, 0.0024720469955354929, -0.12830339372158051, 0.072722546756267548, 0.030842799693346024, -0.061251461505889893, 0.16995474696159363, -0.0034530262928456068, 0.11761727184057236, -0.03115055151283741, -0.19361793994903564, 0.31026381254196167, -0.10629001259803772, -0.11338102072477341, 0.15086166560649872, 0.007622499018907547, 0.0003574817965272814, 0.20171253383159637, -0.21802076697349548, 0.1935451328754425, 0.045770984143018723, 0.31163936853408813, -0.17198416590690613, 0.10640347748994827, -0.10810530185699463, -0.18181315064430237, -0.079753294587135315, 
};
const TfArray<2, int> tensor_dimension5 = { 2, { 2,160 } };
const ALIGN(8) float tensor_data6[30] = { 0, 0, 0, 0, 0, 0, 0, 0, 0, 0, 0, 0, 0, 0, 0, 0, 0, 0, 0, 0, 0, 0, 0, 0, 0, 0, 0, 0, 0, 0, };
const TfArray<1, int> tensor_dimension6 = { 1, { 30 } };
const ALIGN(8) float tensor_data7[30*1*5*16] = { 
  /* [0][0][][] */ -0.19484022259712219,-0.13207386434078217,0.018528532236814499,0.17137335240840912,-0.13163547217845917,0.056127686053514481,0.035235751420259476,-0.0060716676525771618,-0.10057400166988373,0.14340364933013916,0.14931423962116241,-0.11999679356813431,0.086987704038619995,0.0054266075603663921,-0.17269164323806763,0.072900861501693726, -0.16399383544921875,0.060282126069068909,0.071937434375286102,0.084325708448886871,-0.10923021286725998,0.030110001564025879,0.15528158843517303,0.14097951352596283,-0.087048962712287903,0.021145153790712357,-0.044832352548837662,-0.079179421067237854,0.085031606256961823,0.16451095044612885,0.016520889475941658,-0.00090448657283559442, -0.14558333158493042,-0.15250414609909058,0.12767845392227173,-0.08646111935377121,0.044935375452041626,-0.037336770445108414,-0.009839346632361412,-0.15755890309810638,0.033695455640554428,0.034740466624498367,-0.052880365401506424,-0.10986005514860153,0.076690234243869781,0.00038772105472162366,-0.12988707423210144,-0.087580360472202301, -0.088697336614131927,-0.081322059035301208,0.14786675572395325,-0.10381647199392319,-0.022083887830376625,0.15054048597812653,0.081154584884643555,-0.10759878158569336,-0.022804912179708481,0.074761942028999329,0.024901367723941803,0.056001875549554825,0.11630859225988388,-0.0012514138361439109,0.049502275884151459,-0.00098518119193613529, -0.042431730777025223,-0.0044077965430915356,0.15726166963577271,-0.071047559380531311,0.10822557657957077,0.14350591599941254,-0.10730218887329102,0.16154848039150238,0.012505361810326576,0.07851700484752655,-0.044855773448944092,-0.10959871113300323,-0.054270453751087189,-0.019566304981708527,0.0035713277757167816,0.077571690082550049, 
  /* [1][0][][] */ 0.11749647557735443,0.091911152005195618,-0.043640553951263428,0.019603025168180466,0.11513036489486694,0.083995014429092407,0.11713143438100815,-0.014825047925114632,-0.042270112782716751,-0.094234511256217957,-0.020590541884303093,0.033216986805200577,0.12520617246627808,0.09499041736125946,-0.060691222548484802,0.028176253661513329, 0.1123117133975029,-0.099923104047775269,0.096893012523651123,-0.078824110329151154,0.12728720903396606,0.02234545536339283,-0.020973542705178261,0.13798834383487701,-0.066962175071239471,0.083021603524684906,-0.049607325345277786,-0.064211010932922363,0.040061831474304199,-0.1873784065246582,-0.14673735201358795,-0.14116410911083221, 0.051046848297119141,0.021605944260954857,0.17191080749034882,0.13321200013160706,0.14664813876152039,-0.12422214448451996,0.15216405689716339,-0.12897135317325592,0.1172686293721199,-0.030197679996490479,0.10814523696899414,0.014425037428736687,0.041111823171377182,-0.14222642779350281,-0.043962731957435608,-0.10380876809358597, 0.039644684642553329,0.16684237122535706,0.050192102789878845,-0.08643641322851181,0.087751708924770355,-0.074820838868618011,-0.085155308246612549,0.084486857056617737,-0.08151794970035553,-0.044860076159238815,0.15349499881267548,-0.071635127067565918,0.12234419584274292,0.090416371822357178,-0.10181500762701035,-0.1177787110209465, 0.063530117273330688,0.083435520529747009,-0.12869442999362946,-0.13709791004657745,-0.087728329002857208,-0.17319129407405853,0.1231130063533783,-0.086083464324474335,-0.085082374513149261,-0.050875425338745117,0.021252615377306938,-0.14741325378417969,0.099969372153282166,-0.068307764828205109,-0.17393395304679871,-0.11053869873285294, 
  /* [2][0][][] */ -0.015970293432474136,0.081255793571472168,0.035269338637590408,0.092711731791496277,-0.17473001778125763,-0.10401426255702972,-0.024936186149716377,-0.048408996313810349,-0.14928758144378662,0.097162067890167236,-0.16229560971260071,0.052973698824644089,0.10598451644182205,-0.064469575881958008,-0.038767658174037933,0.12803870439529419, -0.08506409078836441,-0.041066035628318787,-0.11013008654117584,0.09688974916934967,-0.12951318919658661,-0.090607479214668274,0.018992545083165169,-0.17385798692703247,0.0044275368563830853,-0.051808074116706848,-0.1295330673456192,-0.064791105687618256,-0.031354472041130066,0.090405955910682678,0.00015957895084284246,0.078942626714706421, 0.13574835658073425,0.037341289222240448,-0.032484058290719986,-0.080247841775417328,0.07685166597366333,0.073683910071849823,0.0022518981713801622,0.056898675858974457,0.022697435691952705,-0.12497999519109726,0.025352435186505318,-0.068602629005908966,-0.10062256455421448,0.10554970055818558,0.12830697000026703,-0.16488897800445557, -0.0770721435546875,-0.041219666600227356,0.058395441621541977,-0.029586302116513252,-0.14497317373752594,0.030753087252378464,-0.1124868243932724,0.10360315442085266,0.1016203910112381,0.068092316389083862,0.06050240620970726,-0.047438517212867737,-0.075838863849639893,0.051106613129377365,-0.064128316938877106,-0.0024336830247193575, 0.086458608508110046,0.060264348983764648,-0.061358857899904251,0.077176906168460846,0.073919415473937988,-0.13554812967777252,0.085864938795566559,0.0029157591052353382,-0.056400492787361145,-0.052255429327487946,0.030907798558473587,-0.00091732130385935307,0.1169087290763855,0.10847684741020203,-0.11951375752687454,0.096318095922470093, 
  /* [3][0][][] */ -0.17642469704151154,0.046680871397256851,0.086530372500419617,0.075235508382320404,-0.11317344009876251,-0.010847772471606731,0.13055247068405151,0.10219357907772064,0.011032799258828163,-0.083293981850147247,-0.1007939949631691,-0.10148567706346512,0.12290667742490768,0.14997458457946777,-0.096358537673950195,0.038110081106424332, -0.038013529032468796,0.12807375192642212,-0.044943284243345261,0.18086324632167816,-0.0097976988181471825,0.18911993503570557,-0.12882214784622192,0.062257774174213409,0.040456674993038177,-0.08852425217628479,0.0094727668911218643,-0.05116555467247963,-0.049248527735471725,-0.010634996928274632,-0.069436855614185333,-0.10772304236888885, 0.089972175657749176,0.17175471782684326,-0.082948192954063416,0.027345413342118263,-0.15774622559547424,0.11230579763650894,-0.0065220203250646591,-0.18352086842060089,-0.15563246607780457,0.016902847215533257,0.099993377923965454,-0.0012604270596057177,-0.074803300201892853,0.11387636512517929,0.062856346368789673,0.090205185115337372, -0.018578594550490379,0.077573157846927643,-0.090721510350704193,0.10915995389223099,-0.099149517714977264,0.16878844797611237,-0.11082495748996735,0.031963218003511429,0.068766377866268158,0.073457270860671997,-0.10491359978914261,-0.13706816732883453,-0.034025102853775024,0.11533837020397186,0.098035305738449097,0.041666239500045776, -0.12953931093215942,0.1007375568151474,-0.014904788695275784,-0.081967629492282867,-0.13081122934818268,-0.13582727313041687,0.028058718889951706,0.0354318767786026,0.062939643859863281,0.17171341180801392,-0.10662294924259186,0.096750453114509583,0.025541134178638458,-0.067328356206417084,0.04991280660033226,-0.12123755365610123, 
  /* [4][0][][] */ 0.085921771824359894,-0.13271282613277435,0.10779204219579697,0.047987993806600571,-0.10950528830289841,0.058827925473451614,0.023284485563635826,-0.11769141256809235,-0.0064217536710202694,-0.046416517347097397,-0.024386059492826462,-0.16095490753650665,-0.032329101115465164,-0.17949216067790985,-0.13797196745872498,-0.069006286561489105, 0.063008487224578857,0.018288319930434227,0.073168754577636719,-0.088258907198905945,0.041141524910926819,-0.033316653221845627,0.063635766506195068,0.13165782392024994,0.10013753920793533,0.033915165811777115,-0.10122838616371155,-0.056679349392652512,-0.14309193193912506,-0.20311027765274048,-0.056960932910442352,0.1547188013792038, 0.13721972703933716,0.033378828316926956,-0.11705002933740616,0.074838429689407349,0.11306170374155045,-0.10214922577142715,-0.12795437872409821,0.12645348906517029,-0.093211419880390167,0.1155337318778038,-0.098524086177349091,-0.1988159567117691,-0.0034453650005161762,0.12616659700870514,-0.16281493008136749,0.18939290940761566, 0.072743281722068787,0.024139678105711937,0.057722020894289017,0.10824349522590637,0.014537324197590351,-0.020710846409201622,0.083154663443565369,-0.047752425074577332,0.1121072992682457,0.12887655198574066,-0.062150932848453522,-0.12844528257846832,-0.1129673644900322,0.14224438369274139,-0.060034848749637604,0.16979348659515381, -0.033696956932544708,-0.016862811520695686,0.036814559251070023,-0.10263434052467346,-0.070673055946826935,-0.064999639987945557,0.033863876014947891,-0.046007990837097168,-0.018526582047343254,0.15999670326709747,0.12187091261148453,0.038550786674022675,-0.071920044720172882,-0.081685677170753479,0.14548356831073761,-0.0044032279402017593, 
  /* [5][0][][] */ 0.010729390196502209,0.16137023270130157,-0.01801588200032711,-0.031621120870113373,0.0710596963763237,-0.0087277079001069069,-0.12014606595039368,-0.092283554375171661,0.15721304714679718,-0.040303327143192291,0.014164287596940994,-0.026705678552389145,0.074577353894710541,0.093124456703662872,-0.21298247575759888,-0.017396796494722366, -0.19798797369003296,-0.047919068485498428,-0.061068624258041382,0.033914938569068909,0.099757745862007141,-0.075586453080177307,0.15554490685462952,0.089271962642669678,-0.012099207378923893,0.094822287559509277,-0.11829528212547302,0.10629389435052872,0.10426337271928787,-0.034021265804767609,0.045600581914186478,-0.2169317901134491, -0.087614193558692932,0.11648659408092499,0.019118553027510643,0.057960391044616699,-0.0010240651899948716,0.14884160459041595,-0.06338733434677124,-0.043975461274385452,-0.0255292858928442,-0.086875282227993011,-0.017774429172277451,-0.028836874291300774,0.076968684792518616,-0.14710155129432678,-0.17013418674468994,0.073851622641086578, -0.15166319906711578,-0.071170240640640259,-0.13686464726924896,-0.041107401251792908,0.088016681373119354,0.21534396708011627,0.04573560506105423,0.084451682865619659,0.16851602494716644,-0.15047271549701691,0.02602800726890564,0.068692982196807861,0.025010591372847557,-0.012688299641013145,-0.014090079814195633,0.0089492630213499069, -0.0042970501817762852,-0.055908557027578354,0.081347636878490448,-0.037249021232128143,0.059251952916383743,-0.0020338022150099277,-0.075168691575527191,-0.063965372741222382,-0.045746695250272751,-0.005928464699536562,0.10573502629995346,-0.16257500648498535,0.059936597943305969,-0.074832119047641754,-0.12257422506809235,0.062511853873729706, 
  /* [6][0][][] */ -0.050911515951156616,0.1683652400970459,-0.021985812112689018,-0.016868267208337784,0.038175195455551147,-0.12705227732658386,0.050569199025630951,-0.043807689100503922,-0.2304501086473465,-0.21412971615791321,-0.01390617061406374,0.059295233339071274,0.014639487490057945,-0.050790965557098389,-0.047428760677576065,-0.069314159452915192, 0.07685387134552002,0.086480371654033661,0.037297084927558899,0.1290290355682373,0.049100581556558609,-0.090362891554832458,-0.05302845686674118,-0.021837938576936722,-0.053140018135309219,-0.14388379454612732,-0.097379885613918304,0.0068730548955500126,-0.16872963309288025,-0.13563667237758636,-0.035257972776889801,0.073214702308177948, 0.11498355120420456,0.068588592112064362,0.066783837974071503,-0.013989032246172428,-0.14211057126522064,-0.029032828286290169,0.050357241183519363,-0.026892691850662231,-0.0076123503968119621,-0.11516787111759186,-0.05379665270447731,-0.056134935468435287,0.038158033043146133,0.045888837426900864,-0.037169981747865677,-0.050483979284763336, 0.023651083931326866,0.012115124613046646,-0.032970260828733444,0.12857946753501892,0.13550578057765961,0.11917465925216675,0.011129505932331085,0.040733169764280319,0.024512885138392448,0.037220943719148636,0.12652203440666199,0.053893312811851501,-0.064671151340007782,0.11910144984722137,0.12326379865407944,-0.060141228139400482, 0.12824329733848572,0.12390504032373428,0.17443689703941345,0.15234507620334625,0.092855781316757202,-0.054632343351840973,-0.14005526900291443,-0.1706436425447464,-0.16956761479377747,-0.055997300893068314,0.06815367192029953,-0.093329384922981262,-0.10846910625696182,-0.093282908201217651,-0.17140747606754303,0.030134543776512146, 
  /* [7][0][][] */ -0.12644496560096741,0.0022750336211174726,-0.037432685494422913,0.17713603377342224,0.031425923109054565,0.17213821411132812,-0.096900738775730133,0.011712380684912205,-0.10334745049476624,-0.031558778136968613,-0.024312540888786316,0.0010116973426192999,-0.011551509611308575,0.1536821573972702,-0.15135839581489563,0.065998412668704987, -0.093993768095970154,-0.014297306537628174,0.065295517444610596,0.12403159588575363,-0.15137280523777008,0.083590440452098846,-0.063036434352397919,-0.14546586573123932,-0.13824225962162018,0.047984883189201355,0.055632356554269791,-0.13609190285205841,0.088562719523906708,0.15713456273078918,0.1107012927532196,0.075246036052703857, -0.011706627905368805,-0.10215608030557632,0.06256527453660965,-0.031148985028266907,0.060685332864522934,-0.056117448955774307,0.16451209783554077,0.061919629573822021,-0.0090512875467538834,-0.019742229953408241,0.12907396256923676,0.14286406338214874,0.061814535409212112,-0.020130697637796402,-0.092131674289703369,0.1071992889046669, -0.10536345839500427,-0.13111171126365662,0.096134774386882782,-0.075627848505973816,0.14047053456306458,-0.082467168569564819,0.17501436173915863,-0.071717590093612671,-0.07312445342540741,0.031709250062704086,-0.12210258096456528,-0.06387966126203537,-0.12429847568273544,-0.055917151272296906,-0.1319364458322525,0.16025736927986145, -0.23717603087425232,-0.10556215792894363,0.10445640236139297,0.096153251826763153,-0.14475256204605103,-0.024791128933429718,0.062614642083644867,-0.037640444934368134,0.097736306488513947,-0.055708292871713638,0.018118210136890411,0.13826049864292145,-0.0085946405306458473,0.13028760254383087,0.1288551390171051,0.14985477924346924, 
  /* [8][0][][] */ 0.087068133056163788,-0.032050039619207382,-0.14378568530082703,0.066983982920646667,-0.017900453880429268,-0.18950463831424713,-0.18784728646278381,-0.14156490564346313,-0.020061081275343895,-0.091875061392784119,-0.14861848950386047,-0.08958590030670166,0.097939223051071167,-0.11650791019201279,-0.069141395390033722,-0.095960341393947601, -0.026018250733613968,-0.10689646005630493,0.038432154804468155,-0.017218254506587982,-0.033070702105760574,-0.015357627533376217,0.014819691888988018,0.074483335018157959,-0.031046492978930473,-0.062668934464454651,0.015754714608192444,-0.058234144002199173,-0.12334056943655014,-0.14790157973766327,-0.011000619269907475,-0.15259663760662079, -0.10141211003065109,0.0074888640083372593,-0.097536191344261169,-0.12939125299453735,0.0074617625214159489,-0.14706669747829437,0.062396608293056488,-0.10229268670082092,0.0099560441449284554,-0.031060293316841125,0.17780056595802307,0.14417335391044617,-0.12093795090913773,0.098276838660240173,-0.13241268694400787,0.057683471590280533, 0.085918620228767395,-0.11982367932796478,0.15478435158729553,-0.06411607563495636,0.20308214426040649,-0.085154928267002106,0.010707477107644081,0.016906918957829475,0.15445077419281006,-0.03966435045003891,0.12707377970218658,0.00380681362003088,0.19753478467464447,0.13857784867286682,0.025123352184891701,0.078923948109149933, 0.0016325105680152774,0.16008931398391724,-0.098791658878326416,-0.077624976634979248,0.13150329887866974,0.15105436742305756,0.11177484691143036,-0.0070359064266085625,0.082463853061199188,0.1200825572013855,0.02094951830804348,0.2024497389793396,0.18355709314346313,0.063246503472328186,-0.10427015274763107,0.095096416771411896, 
  /* [9][0][][] */ -0.030562281608581543,0.067459560930728912,0.054762870073318481,-0.0076444265432655811,0.04516470804810524,0.018803438171744347,0.0087873442098498344,-0.057931836694478989,-0.091469094157218933,0.0037163177039474249,-0.061857715249061584,0.060209687799215317,0.11180818825960159,0.0064293588511645794,-0.15160422027111053,0.18870504200458527, 0.1307159811258316,0.15868021547794342,-0.14142633974552155,-0.1857549250125885,-0.067626915872097015,0.033857408910989761,-0.074497252702713013,0.065426640212535858,-0.0023470257874578238,-0.023884328082203865,0.13887755572795868,-0.082524463534355164,0.054970815777778625,0.077883146703243256,-0.1779865175485611,0.026402877643704414, -0.062354147434234619,-0.16941875219345093,0.10750667005777359,-0.07953450083732605,0.15259705483913422,0.1240590438246727,-0.040912143886089325,0.010446298867464066,-0.10969223827123642,-0.092672839760780334,-0.10993444174528122,-0.04311034083366394,0.13821829855442047,0.12662562727928162,-0.0006706835119985044,0.15522217750549316, -0.11951433122158051,-0.08019498735666275,-0.052468165755271912,0.043129675090312958,0.082943268120288849,0.2252274751663208,-0.11151713877916336,-0.053226925432682037,-0.17832368612289429,0.17807812988758087,-0.059977158904075623,-0.11188815534114838,-0.14096491038799286,0.04231802374124527,-0.16158713400363922,0.13364173471927643, -0.0036475262604653835,0.1527816504240036,-0.16448588669300079,-0.079835735261440277,0.052233386784791946,0.17259591817855835,-0.055370371788740158,-0.01825399324297905,-0.1931132972240448,0.063872948288917542,-0.024191418662667274,0.17249666154384613,-0.09963514655828476,-0.10947972536087036,-0.079292401671409607,0.14756084978580475, 
  /* [10][0][][] */ -0.22386817634105682,-0.098955832421779633,-0.12051040679216385,0.032537605613470078,0.061628926545381546,-0.07093995064496994,0.13026238977909088,-0.081162154674530029,0.046440020203590393,0.072012968361377716,-0.13158120214939117,-0.050202284008264542,-0.063996799290180206,0.16233360767364502,-0.0212987270206213,-0.14438936114311218, -0.15200981497764587,-0.15729831159114838,0.091763034462928772,-0.052897393703460693,0.1437261551618576,0.082462653517723083,0.00025876337895169854,-0.074398592114448547,-0.053120780736207962,0.047173049300909042,-0.031604420393705368,0.13817660510540009,0.100920170545578,-0.12896628677845001,0.062273710966110229,0.03648102656006813, -0.13839283585548401,0.077778205275535583,-0.075707517564296722,0.14140303432941437,0.08677295595407486,0.066769309341907501,0.13942532241344452,-0.0067843282595276833,-0.079269349575042725,-0.071486122906208038,-0.15268068015575409,-0.056537516415119171,0.11375101655721664,0.027295347303152084,-0.11235117167234421,-0.12698107957839966, -0.17013445496559143,-0.026313506066799164,-0.074620142579078674,0.13133123517036438,0.074439279735088348,0.14555327594280243,0.14538799226284027,0.090524248778820038,-0.11159183084964752,-0.055058389902114868,-0.11310578882694244,0.1000448539853096,0.089346617460250854,0.040635034441947937,-0.041271451860666275,-0.088300220668315887, 0.054192934185266495,-0.00084080832311883569,0.12086301296949387,-0.071424245834350586,-0.0015251004369929433,0.024757707491517067,0.060129605233669281,-0.12732651829719543,0.15382477641105652,0.033390577882528305,0.057302389293909073,-0.014764698222279549,-0.13886892795562744,0.11382964253425598,0.067777723073959351,-0.06860727071762085, 
  /* [11][0][][] */ 0.21399104595184326,0.034129995852708817,-0.0046020038425922394,0.14326721429824829,0.076937437057495117,-0.16884057223796844,0.13320985436439514,-0.062645323574542999,0.018777674064040184,-0.10278263688087463,0.078468479216098785,-0.12512606382369995,0.12467896193265915,-0.049221351742744446,-0.065764449536800385,-0.064978569746017456, 0.17766955494880676,0.058381121605634689,0.14066198468208313,0.0042586210183799267,-0.10292490571737289,-0.20253762602806091,-0.077275469899177551,0.14593662321567535,0.11577412486076355,0.087951689958572388,-0.072120964527130127,0.019169380888342857,-0.1590849757194519,-0.17667940258979797,-0.015920992940664291,0.0069997264072299004, 0.065624654293060303,0.12521077692508698,0.010306678712368011,-0.10066765546798706,0.17248255014419556,-0.18311731517314911,0.043928910046815872,-0.10795339941978455,-0.049552053213119507,-0.10463062673807144,0.028689848259091377,-0.085136309266090393,0.11391942203044891,0.05889606848359108,0.080572932958602905,0.10735388100147247, 0.08866245299577713,0.10760170221328735,0.061770297586917877,-0.13786676526069641,-0.058413989841938019,0.074294120073318481,-0.080082602798938751,-0.16353581845760345,0.0090574128553271294,-0.15789100527763367,0.14458990097045898,-0.15148060023784637,-0.010568087920546532,-0.17288953065872192,-0.098819993436336517,0.15498553216457367, 0.079820938408374786,-0.13590188324451447,-0.10245981067419052,0.11898800730705261,0.13493737578392029,-0.12834089994430542,0.071182198822498322,0.028828069567680359,0.084529571235179901,-0.097281068563461304,-0.0096583683043718338,-0.039548024535179138,0.060927394777536392,-0.17254067957401276,0.16600359976291656,0.031190637499094009, 
  /* [12][0][][] */ 0.050621680915355682,-0.13682790100574493,-0.099290981888771057,0.026199331507086754,0.031149949878454208,-0.11172977089881897,0.12898728251457214,-0.057965643703937531,-0.12494021654129028,0.072458088397979736,-0.16607439517974854,-0.048728615045547485,-0.15950080752372742,0.097332216799259186,-0.044385693967342377,0.018995719030499458, -0.14149373769760132,0.0054344874806702137,0.036358088254928589,-0.1104971319437027,0.094016186892986298,-0.15099072456359863,0.11431971937417984,0.03211897611618042,-0.092036418616771698,-0.09030190110206604,0.13586655259132385,-0.03978346660733223,0.022032683715224266,-0.047263890504837036,-0.081873923540115356,-0.053358431905508041, -0.039357580244541168,0.13564564287662506,-0.068080663681030273,-0.12275409698486328,0.11643452942371368,0.084701627492904663,-0.01871391199529171,0.097240380942821503,-0.13184048235416412,-0.1559675931930542,-0.037575714290142059,-0.13372728228569031,0.1311413049697876,0.069288246333599091,-0.14437255263328552,0.054216619580984116, 0.035262510180473328,-0.06620614230632782,0.099987983703613281,-0.050560839474201202,-0.09122949093580246,0.028985932469367981,-0.035241518169641495,0.030129441991448402,-0.10433435440063477,-0.025965243577957153,-0.045766919851303101,0.05647282674908638,0.11713497340679169,-0.16583928465843201,0.021585695445537567,0.043276805430650711, -0.16065026819705963,0.063546121120452881,-0.13642407953739166,0.023424280807375908,-0.041139367967844009,0.083961024880409241,0.099828816950321198,0.12235798686742783,0.070365741848945618,-0.015538018196821213,0.080682165920734406,-0.0763377845287323,-0.02402593195438385,0.096465155482292175,0.045902848243713379,-0.14146611094474792, 
  /* [13][0][][] */ 0.075899720191955566,-0.11780671775341034,0.11825171858072281,0.044018175452947617,0.087506972253322601,0.012272918596863747,0.12534259259700775,-0.12438184022903442,0.068381279706954956,0.0067208106629550457,0.040716119110584259,-0.03894401341676712,0.043337501585483551,-0.17326462268829346,-0.054636936634778976,0.0089422082528471947, -0.08385021984577179,0.028400084003806114,0.043570924550294876,0.035216402262449265,-0.14494220912456512,-0.017453299835324287,0.068580359220504761,0.11791860312223434,0.12392082810401917,-0.12420495599508286,-0.14817222952842712,-0.047469068318605423,0.084788113832473755,-0.13273292779922485,0.01154482364654541,-0.095300570130348206, 0.061479851603507996,0.1441798061132431,-0.087132804095745087,0.13746847212314606,0.10142698138952255,0.057635989040136337,0.14201967418193817,-0.10908417403697968,-0.021772032603621483,-0.043853964656591415,-0.025348750874400139,0.033665813505649567,0.029470203444361687,-0.17885790765285492,0.13528606295585632,-0.047994881868362427, 0.080533146858215332,0.051593329757452011,-0.090509407222270966,0.087061323225498199,-0.040643483400344849,0.06959398090839386,-0.079409956932067871,0.025041259825229645,0.080574676394462585,0.11722169816493988,-0.076876707375049591,-0.054724186658859253,-0.044340845197439194,-0.077812939882278442,-0.042044080793857574,-0.13011650741100311, 0.15088722109794617,0.10643062740564346,0.11513081192970276,-0.10268617421388626,-0.049697130918502808,-0.013079321943223476,-0.10629823058843613,-0.11074656993150711,-0.16782982647418976,0.050692498683929443,-0.13886097073554993,-0.040786340832710266,0.021510161459445953,-0.039584536105394363,-0.18526074290275574,-0.0024879439733922482, 
  /* [14][0][][] */ -0.10380244255065918,-0.07049560546875,-0.07084193080663681,0.12580183148384094,0.12248165905475616,-0.039747398346662521,-0.12312561273574829,-0.029912792146205902,-0.17094689607620239,-0.20140568912029266,-0.017816772684454918,-0.063766106963157654,-0.02853797934949398,0.034276314079761505,0.12790530920028687,0.092672817409038544, 0.054532404989004135,0.13046985864639282,-0.018661970272660255,0.0091841407120227814,0.07723584771156311,-0.14440183341503143,0.046553824096918106,-0.099088564515113831,0.0039175976999104023,-0.15784965455532074,-0.053409453481435776,-0.11841903626918793,0.13505345582962036,-0.15548522770404816,0.059869855642318726,0.16272090375423431, 0.056302338838577271,0.051525145769119263,0.0099093681201338768,-0.10501259565353394,0.005890910979360342,0.021820634603500366,-0.054582707583904266,0.0064509538933634758,-0.13003155589103699,-0.092097565531730652,-0.027244998142123222,0.013560410588979721,0.13072869181632996,-0.043695013970136642,-0.077431470155715942,0.039000652730464935, 0.075684979557991028,0.037696186453104019,0.060135539621114731,0.044814180582761765,0.0026521971449255943,-0.095417581498622894,-0.17356094717979431,-0.09446357935667038,-0.05757618322968483,-0.046587243676185608,0.10868602246046066,0.17020614445209503,0.094928637146949768,0.054119501262903214,-0.067186422646045685,0.052196849137544632, -0.15280114114284515,0.1608336865901947,-0.082653366029262543,-0.049959044903516769,-0.13994313776493073,-0.10043156147003174,-0.13675345480442047,-0.056601196527481079,0.15387657284736633,0.068222261965274811,0.11295023560523987,0.2073148638010025,0.0035975247155874968,0.092581354081630707,0.084317058324813843,0.16472186148166656, 
  /* [15][0][][] */ -0.17344102263450623,-0.040388923138380051,0.054569993168115616,0.096774600446224213,-0.10758386552333832,0.043213754892349243,0.13560885190963745,-0.11154200881719589,-0.061693206429481506,0.12408463656902313,-0.13914430141448975,0.039815235882997513,0.090865239500999451,-0.035111472010612488,-0.071686483919620514,-0.07553313672542572, -0.1438547819852829,0.031037177890539169,0.049214165657758713,0.07653055340051651,-0.16093015670776367,0.04009585827589035,0.096929393708705902,0.077272817492485046,-0.059978775680065155,0.1478554755449295,0.095246881246566772,0.01533095259219408,0.10629133880138397,-0.018628882244229317,0.076515860855579376,0.069707386195659637, -0.13703946769237518,-0.042131375521421432,0.078753232955932617,-0.037139229476451874,0.026189312338829041,0.085613787174224854,-0.061289936304092407,-0.011589935049414635,0.098726391792297363,0.14102427661418915,-0.076053157448768616,-0.0086706541478633881,-0.082042962312698364,0.082798577845096588,-0.039291638880968094,-0.086990363895893097, -0.040068741887807846,-0.078211553394794464,0.12554976344108582,0.18736693263053894,-0.12921521067619324,-0.1068623811006546,0.16600310802459717,-0.00063320662593469024,-0.041493415832519531,-0.04307994619011879,0.07347472757101059,-0.037933852523565292,-0.12501202523708344,-0.091453917324542999,-0.057640071958303452,0.0083801811560988426, -0.22751779854297638,-0.12259926646947861,-0.0076822401024401188,0.01017872616648674,0.024052496999502182,0.14918258786201477,0.14053641259670258,-0.14031156897544861,0.053962968289852142,0.010262279771268368,0.066086836159229279,-0.034712500870227814,0.13363997638225555,0.050238441675901413,0.14572010934352875,-0.17165006697177887, 
  /* [16][0][][] */ -0.050770893692970276,-0.013537749648094177,0.035262465476989746,0.041375953704118729,0.0059463698416948318,-0.12027540802955627,0.02308117039501667,-0.10772264748811722,-0.090392924845218658,0.12537558376789093,0.066093072295188904,0.05607634037733078,-0.14551918208599091,-0.032852288335561752,-0.15294857323169708,-0.12623453140258789, 0.16431844234466553,-0.049443405121564865,0.038328438997268677,-0.052107576280832291,0.045429740101099014,-0.14673900604248047,0.081997811794281006,-0.070251695811748505,-0.015164837241172791,0.0052157356403768063,0.068672902882099152,-0.0071070985868573189,-0.10205463320016861,-0.072299614548683167,0.043100111186504364,0.14367157220840454, 0.20210330188274384,0.067513130605220795,0.13484111428260803,-0.067204147577285767,0.0031926264055073261,-0.13283324241638184,-0.045939520001411438,0.024875404313206673,-0.064328938722610474,0.010884421877563,0.14903658628463745,-0.15466998517513275,-0.033672109246253967,-0.11916287988424301,0.14938531816005707,0.07833591103553772, 0.17109964787960052,-0.036919079720973969,-0.13027128577232361,0.02005109004676342,0.10508212447166443,0.025398571044206619,0.13217617571353912,0.0072596301324665546,0.056805022060871124,-0.077504463493824005,-0.11521275341510773,-0.0057475529611110687,-0.15940435230731964,-0.053928390145301819,0.078763619065284729,0.034614384174346924, 0.17505444586277008,0.14846925437450409,0.097932085394859314,-0.050764594227075577,-0.12107323110103607,-0.06097065657377243,0.0047495146282017231,-0.13547520339488983,0.068681985139846802,0.12838456034660339,-0.092156052589416504,0.053521715104579926,0.027690982446074486,-0.19801132380962372,0.02931787446141243,-0.047655165195465088, 
  /* [17][0][][] */ -0.019577158614993095,-0.10425370186567307,-0.15210704505443573,0.086646892130374908,-0.0038392567075788975,0.049187872558832169,-0.026578992605209351,-0.10506566613912582,-0.023270091041922569,-0.1458849310874939,-0.097894638776779175,-0.17685821652412415,-0.11843684315681458,-0.083828866481781006,-0.062370404601097107,-0.021910840645432472, 0.18029756844043732,0.10402555018663406,0.13995635509490967,0.073967471718788147,0.075664155185222626,-0.22153431177139282,-0.012860074639320374,0.014116576872766018,0.093697138130664825,0.021306797862052917,-0.016592759639024734,-0.1795945018529892,-0.1424727588891983,-0.12442249059677124,0.13596707582473755,0.14849570393562317, 0.066403262317180634,0.14443321526050568,0.1022312343120575,0.10336742550134659,0.1233832910656929,-0.069539815187454224,-0.080892324447631836,-0.11883100867271423,0.075696587562561035,0.0056781279854476452,0.091894380748271942,0.011588594876229763,-0.074603185057640076,0.089513637125492096,0.03527643159031868,0.16486114263534546, -0.075962834060192108,0.056605208665132523,0.10852327197790146,-0.030564224347472191,0.073839321732521057,0.039794377982616425,-0.19286032021045685,-0.046796523034572601,0.071366079151630402,0.072904616594314575,-0.16651758551597595,0.12240179628133774,-0.0021722391247749329,-0.16605181992053986,0.13063769042491913,-0.074887044727802277, 0.14399892091751099,-0.10942906141281128,0.07452324777841568,-0.049154199659824371,0.11376966536045074,-0.077178619801998138,-0.075172983109951019,0.075562193989753723,-0.083166688680648804,0.089270755648612976,0.10348153114318848,-0.090963132679462433,0.058193989098072052,-0.022456174716353416,-0.088026747107505798,0.048703044652938843, 
  /* [18][0][][] */ -0.19208106398582458,0.052321366965770721,0.16943363845348358,0.16728405654430389,-0.049386229366064072,0.039850052446126938,-0.033939331769943237,0.1184505820274353,0.13613344728946686,-0.12930907309055328,0.14171738922595978,-0.022813275456428528,-0.16130758821964264,0.013264479115605354,-0.10685699433088303,-0.15071460604667664, -0.20482824742794037,-0.15373708307743073,0.00022335612447932363,0.088785730302333832,0.032209403812885284,-0.097306020557880402,0.0038714958354830742,0.015420504845678806,0.074543528258800507,-0.099046558141708374,0.11080124974250793,-0.14633163809776306,0.023497952148318291,-0.0062760636210441589,0.16063670814037323,0.016927631571888924, 0.038604579865932465,-0.15304671227931976,-0.064633280038833618,-0.0051640602760016918,0.02014557458460331,-0.13228486478328705,0.07727339118719101,0.043117854744195938,0.039933592081069946,-0.046588603407144547,-0.090420432388782501,0.15294621884822845,-0.11906593292951584,0.048392470926046371,0.13011600077152252,-0.1483914703130722, -0.063294515013694763,-0.11739562451839447,-0.054997734725475311,0.18318918347358704,0.051807522773742676,-0.082537412643432617,0.075921863317489624,-0.084782376885414124,-0.11054949462413788,0.12527799606323242,0.066008076071739197,-0.030276218429207802,-0.092878833413124084,-0.12839323282241821,-0.034139599651098251,0.023351248353719711, -0.074771054089069366,0.13963368535041809,0.08041796088218689,0.18212191760540009,-0.095159828662872314,-0.10180814564228058,0.0779920294880867,-0.14502838253974915,0.084629267454147339,0.012303914874792099,0.18208320438861847,-0.045161042362451553,0.025146685540676117,0.10090009868144989,0.14257065951824188,0.0093910712748765945, 
  /* [19][0][][] */ -0.14026932418346405,-0.021725770086050034,0.050698693841695786,-0.0012350587639957666,-0.042695637792348862,0.087329067289829254,0.13058257102966309,-0.084685966372489929,-0.029297418892383575,-0.0076358960941433907,0.016636354848742485,0.11322232335805893,0.0091356365010142326,0.10040120035409927,0.056772969663143158,0.079331561923027039, 0.047875497490167618,-0.067320190370082855,0.13207918405532837,0.088949911296367645,-0.18981149792671204,0.016687922179698944,0.080398634076118469,0.10722885280847549,0.10337822139263153,-0.021944314241409302,-0.073285385966300964,-0.10076086223125458,0.11808035522699356,0.067222490906715393,-0.0063894409686326981,-0.060817413032054901, -0.15156091749668121,-0.068427778780460358,0.085812918841838837,0.14763577282428741,-0.094379141926765442,-0.099628522992134094,-0.14470976591110229,0.0078620482236146927,0.039754852652549744,0.14798212051391602,-0.14382189512252808,0.11195269227027893,0.13380832970142365,0.14541579782962799,-0.10149894654750824,-0.10207672417163849, -0.058145139366388321,0.037682879716157913,0.077510498464107513,0.093826793134212494,-0.089556097984313965,0.012347795069217682,0.15178374946117401,0.040786180645227432,-0.13404172658920288,-0.028096698224544525,0.1093696653842926,0.0004808236553799361,-0.073130644857883453,0.11121471971273422,-0.16009433567523956,-0.061049845069646835, -0.034422975033521652,-0.11482841521501541,0.11619745194911957,0.038556609302759171,0.080496333539485931,0.011864125728607178,-0.082866892218589783,-0.10175994038581848,0.02074335515499115,-0.100298210978508,-0.16617660224437714,-0.13354076445102692,0.036735173314809799,0.16040414571762085,0.13551215827465057,0.12637355923652649, 
  /* [20][0][][] */ -0.17535175383090973,-0.15557543933391571,-0.015440941788256168,-0.029330139979720116,-0.11472271382808685,0.063616909086704254,0.16527144610881805,0.1347692459821701,0.14285215735435486,-0.010008390061557293,0.13169924914836884,0.086501948535442352,-0.10383063554763794,-0.048088144510984421,0.14141309261322021,-0.16198599338531494, -0.16165260970592499,-0.12430431693792343,-0.056249052286148071,-0.10080041736364365,-0.14401942491531372,-0.10300367325544357,0.059827305376529694,0.049414314329624176,0.11754324287176132,-0.088992007076740265,0.095200993120670319,0.010133051313459873,0.080637291073799133,0.087642356753349304,-0.036246698349714279,0.082588233053684235, -0.027336312457919121,0.1488201767206192,-0.12210588157176971,0.038413785398006439,0.032978817820549011,0.068797960877418518,-0.0017800357891246676,0.14504484832286835,-0.038856618106365204,0.10213813930749893,-0.081723526120185852,-0.07610253244638443,0.070244386792182922,-0.12536431849002838,0.12992271780967712,-0.039757706224918365, -0.041051365435123444,0.047724049538373947,0.10348799079656601,-0.11697153002023697,0.098902091383934021,0.15825136005878448,0.040601618587970734,-0.13546308875083923,0.059605326503515244,0.1013815775513649,-0.025306271389126778,0.11017108708620071,-0.11804800480604172,0.092178560793399811,-0.00024289006250910461,-0.10343478620052338, 0.0077168517746031284,0.14331354200839996,-0.13727062940597534,-0.01358760055154562,-0.075386971235275269,-0.10175846517086029,0.092993505299091339,0.17223082482814789,0.076616682112216949,0.017641289159655571,-0.059806287288665771,0.079611398279666901,0.027572231367230415,-0.059464462101459503,-0.056289065629243851,-0.15210355818271637, 
  /* [21][0][][] */ 0.10704154521226883,0.04989875853061676,0.073072202503681183,0.15696923434734344,0.13931010663509369,0.12791810929775238,0.09132075309753418,0.11791081726551056,-0.15422172844409943,-0.11593691259622574,-0.058168217539787292,0.074667938053607941,0.070420257747173309,0.11883234232664108,-0.097657382488250732,0.073600694537162781, -0.011676197871565819,0.019532769918441772,-0.045904278755187988,0.12398532778024673,0.15942196547985077,-0.11953985691070557,-0.16527687013149261,-0.14533326029777527,0.046490702778100967,0.087020687758922577,-0.11820246279239655,-0.088353976607322693,-0.034848585724830627,-0.16207101941108704,0.0066487216390669346,-0.015975954011082649, -0.014368592761456966,0.012383420951664448,-0.10987843573093414,0.16792596876621246,-0.02888130396604538,0.085094861686229706,-0.056738816201686859,0.042060919106006622,-0.045859046280384064,0.051988646388053894,-0.076215334236621857,0.066444039344787598,-0.15400959551334381,0.057970426976680756,-0.21309219300746918,-0.11486132442951202, -0.042865794152021408,-0.0053831636905670166,-0.10178054869174957,0.049952920526266098,-0.1604929119348526,-0.14738248288631439,-0.15095193684101105,0.13363216817378998,-0.038955271244049072,0.091620512306690216,-0.071751423180103302,-0.13495758175849915,0.0013687009923160076,0.072132788598537445,-0.19658736884593964,-0.10498032718896866, 0.16336148977279663,0.014553810469806194,0.01126970537006855,-0.030753172934055328,0.1242029219865799,0.062143631279468536,-0.12463144958019257,0.027336815372109413,-0.1085488572716713,-0.037189316004514694,0.055944409221410751,-0.11672961711883545,-0.1475864052772522,-0.0041700261645019054,-0.093368113040924072,-0.027601795271039009, 
  /* [22][0][][] */ -0.15695768594741821,0.027321934700012207,-0.0002327423426322639,-0.051274828612804413,-0.037820875644683838,-0.022781804203987122,-0.053524255752563477,-0.078223057091236115,-0.034857332706451416,0.1403145045042038,-0.10915564000606537,-0.0094780623912811279,-0.15318450331687927,-0.14843167364597321,-0.080012530088424683,-0.026574134826660156, 0.13338719308376312,-0.11757927387952805,-0.025584772229194641,-0.067009471356868744,0.11913855373859406,-0.050939634442329407,-0.10726550221443176,-0.088790468871593475,-0.022506013512611389,-0.11939536035060883,0.12983743846416473,0.034583508968353271,-0.013333730399608612,-0.01485104113817215,0.11130551993846893,-0.067524529993534088, -0.12516777217388153,-0.048235140740871429,0.028875574469566345,-0.12247881293296814,0.081993862986564636,0.11144651472568512,0.048508375883102417,0.065140679478645325,-0.15305621922016144,0.054896146059036255,0.073036327958106995,0.098956182599067688,0.012992359697818756,0.13611476123332977,0.11548526585102081,-0.1282113790512085, 0.15302862226963043,-0.13212884962558746,-0.11057594418525696,0.047968745231628418,-0.038367234170436859,0.013229362666606903,-0.11507590115070343,-0.020501554012298584,0.15598051249980927,-0.10219497233629227,-0.11232046782970428,-0.047037675976753235,0.040346473455429077,-0.12122976779937744,0.15660373866558075,0.13542951643466949, -0.017242997884750366,-0.13103595376014709,-0.11628576368093491,0.15533135831356049,-0.033764958381652832,-0.052122563123703003,-0.10044588148593903,-0.023191243410110474,-0.11008577793836594,-0.09514164924621582,0.033170759677886963,-0.07773793488740921,0.024589791893959045,0.039816021919250488,-0.11165564507246017,-0.15573738515377045, 
  /* [23][0][][] */ 0.024514708667993546,-0.025812674313783646,0.0608782097697258,-0.046255383640527725,0.046977844089269638,0.015880221500992775,0.0049911653622984886,0.14182430505752563,0.061201144009828568,-0.0031998357735574245,-0.026471350342035294,-0.071364849805831909,0.096031069755554199,-0.17060291767120361,0.16755983233451843,-0.035417798906564713, 0.18468588590621948,0.097614757716655731,0.12690605223178864,-0.09792783111333847,0.11821544170379639,0.011761240661144257,-0.046794675290584564,0.079306051135063171,-0.045023947954177856,0.068915113806724548,0.0048778033815324306,-0.020613513886928558,0.074024222791194916,-0.1268482506275177,0.11210790276527405,-0.0049516865983605385, 0.15519645810127258,-0.087158635258674622,-0.052988700568675995,-0.061186753213405609,-0.10340191423892975,-0.028887653723359108,0.075396135449409485,-0.079893767833709717,-0.10261770337820053,0.1174013540148735,-0.11417160928249359,0.065856002271175385,-0.18731698393821716,-0.22781760990619659,0.041890751570463181,-0.13106244802474976, -0.040474727749824524,0.14228089153766632,-0.12910868227481842,0.011465449817478657,0.086565598845481873,-0.014864113181829453,-0.11642371863126755,-0.033727798610925674,0.055729106068611145,0.071817174553871155,0.12008789926767349,0.13676153123378754,-0.12541678547859192,-0.14178097248077393,0.084420979022979736,-0.013755153864622116, -0.015883224084973335,0.12437010556459427,-0.034967292100191116,-0.0093085253611207008,0.070142418146133423,-0.05052591860294342,-0.025525122880935669,-0.021071886643767357,-0.14644646644592285,0.11410195380449295,-0.054261036217212677,0.011507496237754822,0.10352908819913864,-0.10522165894508362,0.024132691323757172,-0.068622685968875885, 
  /* [24][0][][] */ 0.1390288919210434,0.17768289148807526,0.076594263315200806,-0.048615764826536179,-0.049780450761318207,-0.012978614307940006,0.045625254511833191,-0.04657764732837677,-0.06748015433549881,-0.0015870614442974329,-0.063812971115112305,-0.091072686016559601,0.013753618113696575,0.0027205611113458872,-0.06962672621011734,0.076578810811042786, -0.0076632355339825153,-0.083151645958423615,0.16909617185592651,0.017409207299351692,-0.078496210277080536,0.070373862981796265,-0.094843931496143341,-0.15054798126220703,0.034549526870250702,-0.1429305225610733,0.05246318131685257,-0.16739630699157715,-0.087428174912929535,-0.1151597648859024,0.091256551444530487,-0.14565464854240417, 0.092680662870407104,-0.10337574779987335,0.056531794369220734,0.09065430611371994,-0.0052148760296404362,-0.090150706470012665,0.049731787294149399,0.11394787579774857,-0.0070355418138206005,-0.061021406203508377,0.14318469166755676,0.0026580642443150282,-0.12761996686458588,-0.1374502032995224,-0.069879047572612762,-0.0018594234716147184, 0.087101675570011139,-0.031836956739425659,0.072453834116458893,-0.0045258989557623863,0.15958347916603088,0.049892440438270569,0.095115907490253448,0.084145978093147278,-0.035843130201101303,-0.036773309111595154,-0.082819901406764984,-0.092689581215381622,0.0555608831346035,0.085250981152057648,0.15320447087287903,0.040096167474985123, 0.11743557453155518,0.022669751197099686,-0.058035094290971756,-0.064766757190227509,0.16811253130435944,-0.13889704644680023,-0.12032431364059448,-0.1250683069229126,0.02715255506336689,-0.19434669613838196,-0.087393105030059814,0.0029120799154043198,0.0071237045340240002,0.061154838651418686,-0.14554420113563538,-0.10663899779319763, 
  /* [25][0][][] */ -0.063473932445049286,-0.046682544052600861,0.0012846802128478885,0.14315296709537506,0.045993071049451828,-0.041155297309160233,-0.085558660328388214,0.054749466478824615,-0.097466669976711273,0.14252354204654694,-0.085914313793182373,0.10361989587545395,0.12969516217708588,0.03701922670006752,-0.02670026570558548,-0.12922050058841705, 0.089819155633449554,0.091972634196281433,0.090519294142723083,0.010016857646405697,0.13797760009765625,-0.16384202241897583,-0.060839615762233734,-0.072129487991333008,0.021532405167818069,-0.025085443630814552,-0.016409449279308319,-0.10485263913869858,0.075181715190410614,-0.069985471665859222,-0.15848986804485321,0.13997209072113037, 0.0008538784459233284,-0.017585204914212227,-0.050193686038255692,0.047541346400976181,0.078135468065738678,-0.049442712217569351,0.078834608197212219,-0.16104045510292053,-0.02552705816924572,-0.14080990850925446,0.011421578004956245,0.052257217466831207,0.039524678140878677,-0.16022662818431854,-0.16896370053291321,-0.051389757543802261, -0.13288633525371552,-0.068368352949619293,0.034650538116693497,-0.076901666820049286,0.047130774706602097,0.0022856541909277439,0.028486475348472595,-0.10297048091888428,0.127873495221138,-0.088733695447444916,-0.12813040614128113,0.13157844543457031,0.028257632628083229,-0.0048480438999831676,-0.12506513297557831,-0.016454741358757019, 0.15902480483055115,-0.010846680030226707,0.00016631522157695144,-0.14778867363929749,0.083611436188220978,0.0096443044021725655,-0.017170524224638939,0.0039354972541332245,-0.0048721060156822205,0.13764683902263641,0.091274499893188477,0.11183197796344757,-0.1052216961979866,-0.091245047748088837,0.092529207468032837,-0.10746333748102188, 
  /* [26][0][][] */ 0.16322289407253265,0.087884098291397095,-0.047841351479291916,-0.0030403337441384792,-0.0061808172613382339,-0.077802367508411407,-0.15033444762229919,-0.125348761677742,-0.13551819324493408,-0.13402649760246277,-0.024020729586482048,0.077112987637519836,-0.048503506928682327,-0.10388822108507156,0.15754777193069458,0.12241767346858978, 0.040404319763183594,-0.012607932090759277,0.054726075381040573,0.14051499962806702,-0.014020748436450958,-0.073208965361118317,-0.082622848451137543,0.026529474183917046,0.075735136866569519,-0.15761755406856537,0.11523982882499695,0.14929990470409393,-0.088305763900279999,0.027982266619801521,0.13024580478668213,0.1127694770693779, 0.091297313570976257,0.13264060020446777,0.11962230503559113,0.032167840749025345,0.08822622150182724,-0.19014576077461243,-0.027264922857284546,-0.10157397389411926,-0.087261594831943512,-0.095449537038803101,-0.081682868301868439,-0.070295289158821106,-0.056645363569259644,-0.045444656163454056,-0.15956786274909973,-0.14983697235584259, 0.095797821879386902,0.038286007940769196,0.05520746111869812,0.037167064845561981,0.04903864860534668,0.0085532404482364655,-0.091857969760894775,-0.16197009384632111,-0.12900388240814209,-0.043996784836053848,0.12889397144317627,-0.052541013807058334,-0.034308597445487976,0.079176194965839386,-0.15413489937782288,-0.095984809100627899, -0.074080415070056915,0.17568771541118622,0.082456424832344055,0.085911743342876434,0.068236485123634338,0.015691878274083138,0.056821439415216446,0.05770421028137207,-0.029139988124370575,0.094489000737667084,0.10249923169612885,-0.12939602136611938,0.090258017182350159,-0.16967238485813141,0.0458047054708004,0.12729744613170624, 
  /* [27][0][][] */ 0.19316244125366211,-0.093082502484321594,-0.10602939873933792,-0.099084936082363129,-0.15224876999855042,-0.1441902369260788,0.095432840287685394,0.10177511721849442,-0.060319423675537109,-0.019960701465606689,-0.040375206619501114,-0.10804716497659683,-0.063960574567317963,-0.10219155997037888,-0.16526705026626587,-0.078484214842319489, -0.050935231149196625,-0.062848307192325592,0.066536687314510345,0.038777925074100494,0.098510950803756714,-0.062995366752147675,-0.011385661549866199,-0.1432519257068634,0.035055544227361679,-0.14586301147937775,-0.033499106764793396,0.028574017807841301,-0.14277909696102142,0.13725414872169495,0.02941388264298439,0.1679900735616684, 0.10527411848306656,-0.024344319477677345,-0.036287806928157806,0.11738564819097519,0.0070124506019055843,-0.070979639887809753,-0.065782994031906128,-0.10801978409290314,0.078135423362255096,0.089681431651115417,-0.20062218606472015,-0.13525719940662384,-0.14956270158290863,-0.031095752492547035,-0.17775885760784149,0.13227427005767822, 0.1971195787191391,0.11503767222166061,0.062449343502521515,-0.054433763027191162,0.12213964760303497,0.044951904565095901,-0.018766924738883972,-0.10714095085859299,0.083237916231155396,0.16157504916191101,-0.15229786932468414,-0.15628190338611603,-0.13515543937683105,-0.13798953592777252,-0.14153672754764557,-0.035076946020126343, -0.049044642597436905,0.13996049761772156,-0.10216044634580612,0.145896315574646,0.071636572480201721,0.0022415805142372847,0.0065794317051768303,0.14027830958366394,0.032117579132318497,0.16634728014469147,0.12945589423179626,0.045587394386529922,0.11915705353021622,0.075698129832744598,-0.032001238316297531,0.15502679347991943, 
  /* [28][0][][] */ 0.0087799662724137306,0.10484656691551208,0.089266002178192139,0.080636486411094666,-0.033877339214086533,-0.065705820918083191,-0.17136101424694061,-0.13964009284973145,-0.088943101465702057,-0.12496867775917053,-0.01256863959133625,-0.068947263062000275,-0.039169065654277802,0.071042269468307495,-0.070523299276828766,0.10360104590654373, 0.10005673766136169,0.11341065913438797,0.1361137330532074,0.0042680259793996811,0.067922085523605347,0.11358315497636795,0.075656779110431671,0.05942976102232933,0.0068330708891153336,0.00957537442445755,0.04683627188205719,-0.16984899342060089,0.09263918548822403,0.13529011607170105,0.10037006437778473,0.03661038726568222, 0.091652698814868927,-0.01709272712469101,0.029568726196885109,-0.050290808081626892,0.010263001546263695,0.02873365581035614,0.095606587827205658,0.031862977892160416,0.10607706010341644,0.12171078473329544,0.14584469795227051,0.078651368618011475,0.035386465489864349,-0.11992636322975159,0.054807223379611969,-0.09451565146446228, 0.11332586407661438,0.10678176581859589,0.05301298201084137,-0.079955250024795532,-0.031113205477595329,-0.11977594345808029,0.10473137348890305,-0.17297646403312683,-0.021820023655891418,-0.0017514300998300314,0.062623240053653717,0.036172851920127869,-0.023953432217240334,0.019934467971324921,-0.00052969082025811076,0.12388516962528229, -0.18679587543010712,-0.07957807183265686,0.088618136942386627,-0.091536834836006165,-0.17085833847522736,-0.0968976691365242,0.0064771221950650215,-0.11503710597753525,0.037594016641378403,-0.063870087265968323,-0.13958317041397095,0.124844990670681,-0.10719513893127441,0.10873977839946747,0.093678474426269531,0.11138875782489777, 
  /* [29][0][][] */ 0.054334994405508041,0.11820769309997559,-0.13740323483943939,0.026114841923117638,-0.06694001704454422,0.12230570614337921,-0.020051278173923492,0.075687862932682037,-0.019783768802881241,0.13106517493724823,0.036113694310188293,-0.16206614673137665,-0.14161507785320282,-0.036809880286455154,0.0059194029308855534,-0.12936604022979736, -0.10087692737579346,-0.011070569977164268,0.12840083241462708,-0.13042250275611877,0.034184247255325317,0.14092442393302917,-0.046409808099269867,-0.031921204179525375,0.094747975468635559,0.083985887467861176,-0.12216087430715561,-0.070400550961494446,0.095511764287948608,-0.076279409229755402,0.13140571117401123,0.12749148905277252, 0.14174497127532959,0.13125255703926086,-0.1167912483215332,-0.036492608487606049,-0.17429931461811066,0.11969631910324097,0.065304338932037354,-0.083283759653568268,-0.073013909161090851,0.051117394119501114,0.14795960485935211,0.12521657347679138,-0.084043525159358978,0.039031844586133957,0.038136385381221771,-0.075238421559333801, 0.038181789219379425,-0.14100873470306396,0.091909639537334442,0.055411268025636673,-0.10862214863300323,0.0024935207329690456,-0.086090065538883209,-0.0057260850444436073,0.070396199822425842,0.0033082321751862764,0.053088106215000153,0.086815237998962402,0.033725041896104813,0.088949419558048248,-0.062423162162303925,0.16030162572860718, -0.10618805140256882,0.16994971036911011,0.022974405437707901,0.050817910581827164,-0.090809784829616547,0.10165046155452728,-0.16091427206993103,-0.0029898688662797213,0.14601229131221771,-0.091307148337364197,0.053610529750585556,0.14943914115428925,0.02810959704220295,-0.058517340570688248,-0.085009530186653137,0.1054120808839798, 
};
const TfArray<4, int> tensor_dimension7 = { 4, { 30,1,5,16 } };
const ALIGN(8) float tensor_data8[10] = { 0, 0, 0, 0, 0, 0, 0, 0, 0, 0, };
const TfArray<1, int> tensor_dimension8 = { 1, { 10 } };
const ALIGN(8) float tensor_data9[10*1*5*30] = { 
  /* [0][0][][] */ -0.05092369019985199,-0.0060026952996850014,0.053377207368612289,0.11405710875988007,0.11456537246704102,-0.046654712408781052,-0.060800567269325256,0.092369139194488525,-0.17333458364009857,0.022797068580985069,0.035512324422597885,-0.15958176553249359,0.15180927515029907,0.18740032613277435,-0.15488068759441376,0.063198521733283997,-0.16738337278366089,0.029277553781867027,0.14575357735157013,0.064905039966106415,0.11180064827203751,-0.11228690296411514,-0.13701105117797852,-0.0052721984684467316,-0.13191226124763489,-0.13243882358074188,0.13003185391426086,-0.096251249313354492,-0.10510625690221786,-0.0081529207527637482, -0.020169690251350403,-0.045964263379573822,0.060728881508111954,0.0069412393495440483,0.097755350172519684,0.13296627998352051,0.097160518169403076,0.09821522980928421,0.087251447141170502,0.23946528136730194,0.024487830698490143,0.055500771850347519,-0.15956023335456848,0.16441655158996582,-0.17090152204036713,0.15234830975532532,0.057608358561992645,0.034798361361026764,0.041374720633029938,-0.068374969065189362,-0.1384517103433609,-0.06160285696387291,0.13224172592163086,-0.044956762343645096,-0.11521374434232712,-0.1167619526386261,-0.0079820537939667702,0.0063637914136052132,0.11303836852312088,-0.025214288383722305, 0.15393885970115662,-0.06851746141910553,-0.13692092895507812,-0.078398637473583221,-0.2040693461894989,-0.099362686276435852,-0.19937524199485779,0.26715818047523499,-0.15733827650547028,0.39570733904838562,0.16070292890071869,-0.11061571538448334,0.11991307139396667,-0.10522480309009552,-0.1505996435880661,0.18401631712913513,-0.017039068043231964,0.0046056080609560013,0.097163155674934387,0.055174551904201508,-0.12863807380199432,-0.15756691992282867,0.033520027995109558,0.12516418099403381,-0.22615282237529755,0.14396339654922485,-0.051267921924591064,-0.16696035861968994,0.14667516946792603,0.11411567777395248, 0.12720185518264771,0.082164719700813293,0.1059856042265892,0.067787684500217438,-0.14808012545108795,0.024643046781420708,-0.056828770786523819,-0.049562223255634308,-0.23446369171142578,0.051526308059692383,-0.056258723139762878,-0.12271460890769958,-0.10532112419605255,0.09201464056968689,-0.12738274037837982,0.14374694228172302,0.097863808274269104,0.14178846776485443,0.19387608766555786,-0.070443831384181976,-0.060323379933834076,0.041414130479097366,0.042704656720161438,-0.098194919526576996,-0.14556829631328583,-0.12302440404891968,0.027331622317433357,-0.2601064145565033,0.054034698754549026,0.21889257431030273, 0.17040127515792847,0.036798745393753052,0.070563033223152161,0.046792998909950256,-0.087837390601634979,-0.10926619917154312,-0.1138153076171875,0.19160386919975281,-0.10374584048986435,0.36104056239128113,0.12970811128616333,-0.17096900939941406,0.10673925280570984,0.13589823246002197,-0.10485588759183884,0.16522270441055298,0.065086118876934052,0.08256261795759201,0.32059890031814575,-0.11835619062185287,0.15544222295284271,0.078751899302005768,-0.091424122452735901,-0.12897852063179016,0.0076791318133473396,0.14258930087089539,0.04121306911110878,-0.027982586994767189,-0.07294175773859024,0.14046639204025269, 
  /* [1][0][][] */ -0.18735893070697784,0.046768449246883392,-0.07703891396522522,0.039108648896217346,0.0080218203365802765,0.00086361262947320938,0.13719841837882996,-0.092915154993534088,-0.10248898714780807,-0.091632738709449768,0.0001083811730495654,-0.10019813477993011,-0.050556667149066925,-0.031842399388551712,-0.063900135457515717,-0.20139430463314056,-0.020011801272630692,0.10754000395536423,-0.041508428752422333,-0.15565264225006104,0.014770443551242352,0.1133698895573616,0.0032724309712648392,0.10777131468057632,-0.020275674760341644,0.17727445065975189,-0.046021442860364914,0.11684960871934891,-0.0026848050765693188,0.088468082249164581, -0.16033430397510529,0.0094096176326274872,0.098122827708721161,0.11961779743432999,0.043744921684265137,0.035472262650728226,0.10923671722412109,-0.078306347131729126,-0.066683754324913025,0.04423677921295166,-0.16197957098484039,0.11629298329353333,0.068556688725948334,0.056905079632997513,0.22124543786048889,0.082222931087017059,0.068803563714027405,0.15238285064697266,-0.057559654116630554,-0.0051986933685839176,0.12726832926273346,0.0039377105422317982,0.020040437579154968,0.17556673288345337,0.10803694278001785,0.17846369743347168,0.029774507507681847,0.16312859952449799,0.076240628957748413,-0.07089570164680481, 0.066153310239315033,0.048752870410680771,-0.072935529053211212,-0.055240441113710403,-0.012369638308882713,0.032976541668176651,0.22141523659229279,-0.12945318222045898,-0.03306104987859726,-0.0043374286033213139,-0.13841743767261505,0.18840883672237396,-0.12659713625907898,0.11068809777498245,0.21391813457012177,0.052807647734880447,0.13151805102825165,-0.15139599144458771,0.029701640829443932,0.098905168473720551,0.061294928193092346,0.041423197835683823,0.15924710035324097,0.061606433242559433,0.013680459931492805,0.14682747423648834,0.081736147403717041,-0.01674238033592701,-0.086690701544284821,-0.15739382803440094, -0.013955747708678246,0.10037402808666229,-0.066258609294891357,0.10044046491384506,-0.053721584379673004,0.11350386589765549,0.0077915629372000694,-0.099829927086830139,0.22052566707134247,0.080335520207881927,0.054654881358146667,-0.040544562041759491,-0.13655091822147369,0.065849274396896362,0.092786401510238647,-0.037445235997438431,0.088018409907817841,-0.082851029932498932,-0.15662230551242828,-0.011569900438189507,0.083008050918579102,0.033252552151679993,0.15660503506660461,0.12406904995441437,0.0049216742627322674,0.15937387943267822,-0.022382454946637154,-0.059199806302785873,-0.086892612278461456,0.13677133619785309, -0.039705507457256317,-0.1958688497543335,0.096139654517173767,0.10444463789463043,0.09729381650686264,0.12972909212112427,-0.017376966774463654,-0.06677660346031189,0.28485968708992004,0.17890225350856781,0.13584399223327637,0.017040535807609558,0.074354209005832672,0.11047762632369995,0.036350298672914505,0.13152286410331726,-0.11039648205041885,-0.042439211159944534,0.06489235907793045,0.092450186610221863,-0.033906061202287674,-0.08954649418592453,-0.13056889176368713,-0.080673687160015106,0.044893790036439896,0.15462878346443176,0.11327524483203888,0.0085496474057435989,-0.10504768043756485,-0.10142060369253159, 
  /* [2][0][][] */ -0.13576734066009521,0.12160342931747437,0.031000591814517975,-0.10638770461082458,0.21202877163887024,-0.0042927935719490051,0.076907604932785034,-0.061426270753145218,0.16981104016304016,0.10152725875377655,-0.10392638295888901,-0.049796044826507568,0.056129682809114456,-0.1229173019528389,0.036751691251993179,-0.014900336042046547,-0.028945719823241234,0.1613687127828598,-0.15546795725822449,-0.045127738267183304,0.1233958825469017,-0.16728103160858154,-0.0099026262760162354,0.091978028416633606,0.11641446501016617,0.077326804399490356,-0.065015561878681183,-0.084445953369140625,-0.0044154808856546879,0.12549929320812225, 0.082159675657749176,-0.13995587825775146,0.029242552816867828,-0.0091529088094830513,-0.065318301320075989,0.088618524372577667,0.14326457679271698,0.15045943856239319,-0.018642544746398926,-0.12012311816215515,0.08734489232301712,0.097182810306549072,-0.012720925733447075,0.14498195052146912,0.14438460767269135,-0.10910394042730331,0.060813382267951965,-0.14027082920074463,0.056415289640426636,-0.017630212008953094,-0.089478790760040283,-0.07891661673784256,0.046153441071510315,-0.077398911118507385,0.13498750329017639,0.01089796144515276,-0.03135170042514801,-0.21500831842422485,-0.030335942283272743,-0.06679227203130722, -0.10860743373632431,-0.12644177675247192,0.04658731073141098,0.1139572486281395,0.094818204641342163,0.14991864562034607,0.013022793456912041,-0.13860905170440674,0.079978920519351959,0.054872170090675354,0.11444056779146194,-0.089673936367034912,0.07648719847202301,-0.11039892584085464,0.043801687657833099,0.092681162059307098,0.13678565621376038,-0.011397096328437328,0.080303743481636047,0.0027521154843270779,0.12624499201774597,0.13499540090560913,-0.0042965002357959747,0.050260156393051147,0.038484327495098114,-0.033569954335689545,-0.11171844601631165,0.053546000272035599,0.0057979142293334007,0.12529990077018738, 0.096877984702587128,0.025983341038227081,-0.10037106275558472,-0.1521991491317749,0.14981727302074432,-0.11031631380319595,0.068143725395202637,-0.080935657024383545,0.17676173150539398,-0.15580140054225922,-0.033794939517974854,0.12428035587072372,0.16867755353450775,-0.062084835022687912,0.17222592234611511,0.083027593791484833,-0.098214402794837952,0.00857508834451437,-0.16714830696582794,0.14062482118606567,0.12734678387641907,-0.097793117165565491,0.063814014196395874,-0.12197843939065933,0.10391837358474731,-0.12512527406215668,0.024450970813632011,-0.001692151534371078,0.069553621113300323,0.03615298867225647, 0.011917504481971264,0.029242247343063354,-0.0018124195048585534,-0.042282525449991226,0.0079006636515259743,-0.0054016103968024254,-0.08358590304851532,0.084016673266887665,0.13408865034580231,0.044861655682325363,-0.08961254358291626,0.067323789000511169,0.034239120781421661,-0.12816223502159119,0.20883326232433319,-0.013954170048236847,0.023375386372208595,0.13789258897304535,0.064586721360683441,0.061101656407117844,-0.17991699278354645,-0.09258376806974411,0.061088398098945618,0.13625161349773407,0.093462824821472168,-0.16470798850059509,-0.10516492277383804,-0.12199218571186066,0.099649600684642792,-0.11068454384803772, 
  /* [3][0][][] */ -0.18729479610919952,0.030128741636872292,-0.098432034254074097,-0.17360974848270416,0.094325162470340729,0.024620272219181061,0.17841222882270813,0.096030525863170624,0.29725828766822815,-0.2725803554058075,0.054814413189888,0.18488802015781403,-0.0066972356289625168,-0.08843376487493515,0.14606697857379913,0.0722360759973526,0.10468361526727676,0.070524640381336212,-0.081250846385955811,-0.10513219237327576,-0.11100104451179504,0.1204010471701622,0.11831662058830261,0.17415045201778412,0.077698603272438049,-0.11017327755689621,-0.085603944957256317,0.2457365095615387,0.05801718682050705,0.045656565576791763, -0.017324008047580719,0.085818909108638763,-0.082433953881263733,-0.083284877240657806,0.19365090131759644,-0.17290079593658447,0.19971251487731934,0.071817874908447266,0.12587669491767883,-0.2779601514339447,-0.21185469627380371,0.075565740466117859,-0.11654352396726608,0.1174246221780777,0.188020259141922,-0.23364712297916412,-0.024445962160825729,0.033157486468553543,-0.18579334020614624,0.12810869514942169,-0.081992074847221375,-0.097757682204246521,-0.097720727324485779,-0.0027935095131397247,0.12568552792072296,0.032167229801416397,0.11424750834703445,-0.13370124995708466,0.051675252616405487,-0.044142894446849823, -0.065330818295478821,-0.02373393252491951,0.040144447237253189,-0.051035765558481216,0.091459162533283234,0.089100196957588196,-0.063841633498668671,0.14858973026275635,0.10625528544187546,-0.068897023797035217,-0.14647139608860016,0.20244947075843811,-0.017511859536170959,0.0056800921447575092,0.11437290906906128,0.086760260164737701,0.14189979434013367,-0.08198249340057373,-0.24124950170516968,-0.0055071748793125153,0.076122678816318512,-0.024008428677916527,0.03770175576210022,-0.11346779018640518,0.18305099010467529,0.16033650934696198,0.089197374880313873,0.18834887444972992,-0.12093431502580643,-0.020982570946216583, -0.2025580108165741,0.17684133350849152,-0.013442041352391243,-0.02590920589864254,0.3271334171295166,-0.16475041210651398,-0.0033162990584969521,0.11668704450130463,0.11087319254875183,-0.2692563533782959,-0.17269372940063477,0.10266769677400589,-0.082945674657821655,0.16513489186763763,0.27889746427536011,-0.051590539515018463,0.2414356917142868,0.11352268606424332,-0.077864810824394226,0.023474514484405518,-0.055825825780630112,0.087871380150318146,0.12407463788986206,-0.00300441007129848,0.16737048327922821,-0.018335476517677307,0.19374816119670868,0.04644148051738739,-0.13812005519866943,0.068373233079910278, 0.10693318396806717,0.19047677516937256,-0.056363597512245178,0.07511766254901886,0.074895970523357391,-0.18193557858467102,0.0051818187348544598,-0.1706080436706543,0.037653625011444092,-0.28454062342643738,-0.11040808260440826,-0.030382130295038223,0.085846699774265289,0.18743395805358887,0.24484553933143616,0.03556201234459877,0.199557825922966,-0.12580977380275726,-0.2335285097360611,0.11016716063022614,-0.050548195838928223,0.077689401805400848,0.16267597675323486,0.15681491792201996,0.091835625469684601,0.094940230250358582,0.11543990671634674,-0.043838329613208771,0.051916602998971939,0.081573836505413055, 
  /* [4][0][][] */ 0.13394436240196228,0.00057881401153281331,-0.074700541794300079,-0.021987974643707275,-0.27111095190048218,0.23203885555267334,-0.11806560307741165,0.042479418218135834,-0.27689564228057861,0.39695796370506287,0.11691619455814362,-0.26253461837768555,-0.1243664026260376,0.076820477843284607,-0.20204192399978638,0.14040690660476685,-0.053082812577486038,-0.14699219167232513,0.43081504106521606,0.085118718445301056,0.13612198829650879,0.1946227103471756,0.066254585981369019,0.1638178825378418,0.085731334984302521,-0.076006367802619934,-0.058204676955938339,-0.17402374744415283,0.067847996950149536,0.057096019387245178, 0.22436974942684174,-0.16836774349212646,-0.082385197281837463,0.077734857797622681,-0.19699551165103912,0.14993955194950104,-0.047610845416784286,0.026282142847776413,0.045904587954282761,0.31411343812942505,0.18181860446929932,-0.11756625026464462,-0.10983704030513763,0.18047448992729187,-0.09156017005443573,-0.05360504612326622,-0.13942788541316986,-0.067500844597816467,0.037664469331502914,0.15007957816123962,0.12466274201869965,0.1244671642780304,0.090893864631652832,-0.016169413924217224,0.078356057405471802,-0.078016616404056549,-0.17278842628002167,-0.089592084288597107,0.11226782947778702,-0.019217954948544502, 0.16794657707214355,0.1426926851272583,-0.15215525031089783,0.10609797388315201,-0.17020265758037567,0.16876256465911865,0.037172473967075348,0.1818610280752182,-0.28823760151863098,0.21336866915225983,0.25020566582679749,-0.052455924451351166,-0.0088221840560436249,-0.14597411453723907,-0.098873086273670197,0.23592416942119598,0.029010923579335213,-0.026217607781291008,0.25144857168197632,-0.046074654906988144,0.058593902736902237,-0.043619565665721893,0.14765805006027222,0.071850225329399109,-0.0995316281914711,0.14398610591888428,-0.04369039461016655,-0.12664288282394409,0.014549743384122849,0.17481394112110138, 0.034731585532426834,0.0029283950570970774,-0.079775005578994751,-0.023986387997865677,-0.12689849734306335,0.083656162023544312,-0.20152485370635986,0.16354680061340332,-0.30053988099098206,0.18208183348178864,0.0037098221946507692,-0.050630807876586914,-0.13759908080101013,0.075989007949829102,-0.074826598167419434,0.1323922872543335,-0.20159131288528442,-0.085606537759304047,0.32242226600646973,0.15527831017971039,0.10333897918462753,-0.17896872758865356,-0.055923052132129669,0.014043360017240047,-0.14228853583335876,-0.08079945296049118,0.094996184110641479,-0.050554979592561722,0.12936210632324219,0.1611592024564743, -0.0084252823144197464,0.074371114373207092,-0.092569358646869659,0.18319548666477203,-0.080205641686916351,0.092971451580524445,0.0021057960111647844,0.062148954719305038,-0.23380325734615326,0.31388941407203674,0.013592041097581387,-0.10620208829641342,-0.023968940600752831,-0.082989834249019623,-0.15975257754325867,0.17480586469173431,-0.090764991939067841,0.034271419048309326,0.31663283705711365,-0.10603909194469452,-0.092451751232147217,-0.074066214263439178,-0.13393814861774445,-0.060695283114910126,0.043379485607147217,0.044394828379154205,-0.11273595690727234,-0.10383681952953339,-0.012166893109679222,-0.085968092083930969, 
  /* [5][0][][] */ 0.072118021547794342,0.18209855258464813,-0.13062244653701782,0.0027234356384724379,-0.047577653080224991,-0.076823495328426361,0.059812966734170914,-0.03061617910861969,0.23391644656658173,-0.25325396656990051,-0.24428707361221313,0.26842513680458069,-0.12652584910392761,0.063708677887916565,0.082543917000293732,0.091891661286354065,-0.080574654042720795,-0.01443138625472784,-0.27601101994514465,0.11891697347164154,0.14075219631195068,0.12873959541320801,-0.024474278092384338,0.043126363307237625,-0.026815637946128845,0.0044156904332339764,-0.085186243057250977,-0.13245221972465515,-0.098127417266368866,-0.085487410426139832, 0.11825144290924072,0.17663159966468811,0.09450840950012207,-0.076061904430389404,0.10690304636955261,0.065670691430568695,0.20743992924690247,0.094571210443973541,0.26730307936668396,-0.15857316553592682,0.035039253532886505,0.15063264966011047,0.075264878571033478,0.16349820792675018,0.043765272945165634,0.09971088171005249,0.13171151280403137,0.13113836944103241,-0.10703952610492706,0.029484225437045097,-0.1049673855304718,0.090499691665172577,-0.078261561691761017,0.13104107975959778,0.27852785587310791,0.16112717986106873,0.0059112962335348129,-0.031887713819742203,-0.008988087996840477,-0.0066867247223854065, 0.10221856832504272,0.087308980524539948,-0.10066623240709305,-0.12287365645170212,0.051347564905881882,-0.04090438038110733,0.040608085691928864,-0.08407292515039444,0.20254553854465485,-0.034419171512126923,-0.095558121800422668,0.1316695362329483,0.031938742846250534,0.14998920261859894,-0.10257089138031006,-0.014349820092320442,0.13389204442501068,0.14410963654518127,-0.091308735311031342,-0.14655676484107971,0.026964303106069565,0.086192265152931213,-0.022166550159454346,-0.10580102354288101,0.057053670287132263,-0.14398784935474396,0.0073392521589994431,0.15003436803817749,-0.0026017590425908566,0.05924263596534729, -0.13797442615032196,0.17384994029998779,-0.04818938672542572,-0.043995846062898636,0.11738435924053192,-0.087498612701892853,0.18906466662883759,0.034054864197969437,0.11867979168891907,-0.019665462896227837,0.028261763975024223,0.076222233474254608,-0.090403474867343903,-0.12699715793132782,0.18811382353305817,-0.074331223964691162,-0.089340865612030029,-0.14573827385902405,-0.1455620676279068,-0.014211132191121578,-0.089339606463909149,-0.0053928620181977749,0.11857974529266357,0.13828852772712708,-0.0089662410318851471,0.038262460380792618,-0.0055089602246880531,-0.033283602446317673,0.076472342014312744,-0.050059296190738678, -0.081825815141201019,0.076630733907222748,-0.068976864218711853,-0.12009707093238831,0.13788317143917084,-0.025268474593758583,0.063966765999794006,0.01896296814084053,0.030768005177378654,-0.25612416863441467,0.092989802360534668,0.27586916089057922,-0.089071363210678101,-0.069171406328678131,0.25358790159225464,-0.03285212442278862,-0.054792482405900955,0.068304978311061859,-0.009447670541703701,-0.067956306040287018,0.043773945420980453,0.049026183784008026,0.050869658589363098,0.14807242155075073,0.057886868715286255,-0.094329282641410828,0.20168909430503845,0.097864948213100433,0.09462466835975647,-0.11237750947475433, 
  /* [6][0][][] */ 0.080213025212287903,0.019996004179120064,0.020542377606034279,0.074603654444217682,0.27808377146720886,-0.087856605648994446,0.11015792191028595,0.072641670703887939,0.29082107543945312,-0.045259807258844376,-0.11779379844665527,0.21040889620780945,-0.16806851327419281,0.0023737663868814707,0.18723636865615845,-0.068649858236312866,0.13066966831684113,-0.0046288012526929379,-0.031143400818109512,-0.064376778900623322,0.14485125243663788,0.083373121917247772,-0.12247484922409058,0.13115361332893372,-0.069825015962123871,0.12261141836643219,0.092550657689571381,-0.0046395212411880493,0.14637601375579834,0.066710203886032104, -0.17813454568386078,-0.025348495692014694,0.1059572845697403,0.084908686578273773,0.10920900106430054,-0.15128341317176819,0.083075426518917084,0.053395397961139679,0.2964741587638855,-0.30177631974220276,-0.034515731036663055,0.0060261562466621399,0.097257271409034729,0.008878679946064949,0.11878520995378494,0.029229948297142982,0.22093074023723602,0.17269636690616608,-0.088304042816162109,0.1163024827837944,0.064766183495521545,-0.15167193114757538,-0.14411978423595428,-0.035152047872543335,-0.010140463709831238,0.10512871295213699,0.17253707349300385,0.046402160078287125,0.013306452892720699,0.085717812180519104, -0.1679924875497818,0.031381405889987946,0.016287693753838539,0.021444378420710564,0.028244445100426674,0.014800770208239555,0.23162315785884857,-0.038401413708925247,0.011758197098970413,-0.090293779969215393,-0.064674913883209229,0.13595597445964813,0.054814174771308899,0.093083120882511139,0.21589080989360809,-0.079080022871494293,0.065149553120136261,0.031435318291187286,-0.1157817468047142,-0.098050124943256378,0.058717794716358185,0.14863324165344238,0.15363028645515442,-0.11457277089357376,0.058463729918003082,-0.15796339511871338,0.16279901564121246,0.070400968194007874,0.19175361096858978,0.039884869009256363, 0.0013092686422169209,0.11239804327487946,0.14171160757541656,-0.020183572545647621,0.22961066663265228,-0.048150170594453812,-0.079511411488056183,-0.093452431261539459,0.1885962188243866,-0.26478478312492371,-0.20580443739891052,-0.0066900546662509441,0.025927441194653511,-0.025079060345888138,0.20431126654148102,-0.19394345581531525,0.22572986781597137,0.029894856736063957,-0.19400171935558319,-0.1151174008846283,-0.089693464338779449,-0.12553076446056366,0.023275300860404968,0.19666646420955658,-0.024512318894267082,-0.11732979863882065,0.055737294256687164,0.071209900081157684,-0.087891414761543274,0.0086190197616815567, -0.19268278777599335,-0.0021581770852208138,-0.12096137553453445,-0.087491899728775024,0.076110467314720154,-0.13866929709911346,0.10848361998796463,-0.082224525511264801,0.11788763105869293,-0.27996763586997986,-0.089461423456668854,0.24540230631828308,-0.078874170780181885,0.0058966530486941338,0.06568320095539093,-0.20456409454345703,0.19321773946285248,-0.087832987308502197,0.0046710167080163956,-0.095630951225757599,0.066733494400978088,0.24058566987514496,-0.0942268967628479,0.079933628439903259,0.29416829347610474,-0.12121707946062088,0.11175061017274857,0.24917368590831757,0.0034743722062557936,-0.13880187273025513, 
  /* [7][0][][] */ -0.081614591181278229,0.16502146422863007,-0.08771437406539917,-0.1533367931842804,-0.060731329023838043,-0.051080260425806046,-0.048676464706659317,-0.14866788685321808,0.14114601910114288,0.058159351348876953,0.063354283571243286,0.16463778913021088,-0.023649891838431358,-0.01486063189804554,0.03536592423915863,-0.075977623462677002,-0.085332363843917847,0.025038519874215126,-0.17217470705509186,0.063281990587711334,0.15881854295730591,0.13506868481636047,0.13102468848228455,-0.12266969680786133,-0.13984696567058563,0.092116117477416992,0.074768953025341034,0.0091830156743526459,-0.09950970858335495,0.12264145165681839, 0.0057415501214563847,0.11173545569181442,0.088594168424606323,-0.056748531758785248,-0.11989427357912064,-0.14767275750637054,-0.072792917490005493,0.0067669637501239777,-0.011532613076269627,0.028518207371234894,-0.016648991033434868,0.026639683172106743,-0.093549840152263641,0.015232361853122711,-0.11948753893375397,0.10601950436830521,-0.025465436279773712,-0.0085824038833379745,-0.076393440365791321,0.022145627066493034,0.051684107631444931,0.064887076616287231,0.0057437382638454437,0.10618708282709122,0.19154435396194458,0.087546214461326599,0.10833407938480377,0.092184200882911682,-0.0056072147563099861,-0.030531100928783417, 0.057523850351572037,0.077091358602046967,0.01566104032099247,0.046733610332012177,0.10606816411018372,-0.09650035947561264,-0.06466316431760788,-0.066505350172519684,0.10053571313619614,-0.080531708896160126,-0.049132335931062698,-0.025072194635868073,-0.022385869175195694,0.13484242558479309,0.12797403335571289,0.05012115091085434,0.095310278236865997,-0.00022693660866934806,-0.19227235019207001,0.022853575646877289,0.14545148611068726,0.15500448644161224,0.13646394014358521,-0.065332353115081787,0.11001622676849365,0.16063100099563599,-0.11222836375236511,0.17391203343868256,0.091839298605918884,-0.061367399990558624, -0.13112936913967133,0.18978020548820496,0.10899700969457626,-0.17646189033985138,0.18131932616233826,-0.08211372047662735,-0.10885607451200485,-0.13632816076278687,-0.027205619961023331,0.0042655947618186474,-0.081115730106830597,0.2231522798538208,-0.10496892035007477,-0.14717371761798859,0.046476628631353378,-0.012450475245714188,0.11558904498815536,0.10821191221475601,-0.085815802216529846,0.031166579574346542,0.138332799077034,0.11513989418745041,-0.032936960458755493,-0.0084378635510802269,-0.0051630912348628044,-0.050256520509719849,0.17984676361083984,0.11106019467115402,-0.1222463846206665,-0.037209320813417435, -0.1150422990322113,0.081204406917095184,-0.02004702016711235,-0.18470233678817749,-0.0043870578519999981,-0.11229453980922699,-0.086225777864456177,0.0065415659919381142,0.0092366170138120651,0.078626014292240143,-0.057530522346496582,-0.087762817740440369,0.019218988716602325,-0.079311035573482513,0.18157526850700378,0.096064649522304535,-0.078433535993099213,0.14378997683525085,-0.15083649754524231,0.039744924753904343,0.083094649016857147,0.061902567744255066,-0.00082825496792793274,-0.015238094143569469,-0.12463948130607605,-0.059781670570373535,0.20799341797828674,0.052875515073537827,-0.093451023101806641,0.092346653342247009, 
  /* [8][0][][] */ -0.20664659142494202,0.17561112344264984,0.016997333616018295,0.032291483134031296,0.3154137134552002,-0.078181833028793335,0.187071293592453,-0.13486149907112122,0.15103819966316223,-0.26553651690483093,-0.021177450194954872,0.25421059131622314,0.14347991347312927,0.17697863280773163,0.18121744692325592,-0.0090835755690932274,-0.019370658323168755,0.19157926738262177,-0.13776949048042297,0.0043108980171382427,-0.14733311533927917,0.026460058987140656,0.056114375591278076,0.039815716445446014,0.21216905117034912,-0.022369729354977608,0.098011687397956848,0.30093187093734741,0.15753179788589478,-0.017411725595593452, 0.068549178540706635,-0.04670734703540802,-0.01632838137447834,-0.015521321445703506,0.2975921630859375,-0.079078376293182373,0.11871537566184998,-0.047107864171266556,0.1888824999332428,-0.27805674076080322,-0.20638620853424072,0.28592976927757263,0.0066172191873192787,-0.08858112245798111,0.22145962715148926,-0.16256512701511383,0.070248335599899292,-0.035036474466323853,-0.12003352493047714,-0.084591507911682129,0.030402578413486481,0.21999698877334595,0.012860506772994995,-0.10279273986816406,0.11660068482160568,0.091002039611339569,0.066703297197818756,0.28258281946182251,0.065846167504787445,0.0036458410322666168, -0.16084672510623932,-0.091193139553070068,-0.024033593013882637,0.066991187632083893,0.13239108026027679,-0.082818038761615753,0.10997807234525681,-0.016203876584768295,0.2608921229839325,-0.27101141214370728,-0.21665836870670319,0.029503680765628815,-0.022419087588787079,-0.083249233663082123,0.086367636919021606,-0.20404335856437683,0.12309564650058746,0.022848574444651604,-0.16171360015869141,0.038216080516576767,-0.11113712191581726,-0.016456941142678261,0.025144010782241821,0.13258720934391022,-0.020253254100680351,0.042755145579576492,-0.025767026469111443,0.14725951850414276,0.066253110766410828,0.047422565519809723, -0.091113165020942688,0.18996436893939972,-0.083944670855998993,0.074158415198326111,0.29142802953720093,-0.12133442610502243,-0.027653081342577934,0.11537249386310577,0.13536682724952698,-0.23064243793487549,-0.19999484717845917,0.07507721334695816,-0.052538331598043442,0.11303066462278366,0.21312358975410461,0.032196708023548126,0.050852615386247635,0.10478436946868896,-0.17997059226036072,-0.099200762808322906,-0.033713579177856445,0.11715081334114075,-0.079071149230003357,0.16934363543987274,0.054104715585708618,-0.13139428198337555,0.21885369718074799,0.093825750052928925,-0.067835398018360138,0.052491378039121628, -0.17383022606372833,0.19437055289745331,-0.074414312839508057,-0.13270564377307892,0.086936570703983307,-0.10080975294113159,0.073075063526630402,0.0075881239026784897,0.35367634892463684,-0.11145111173391342,-0.021179664880037308,0.014551690779626369,-0.005213660653680563,-0.10632207244634628,0.33919283747673035,0.039182212203741074,-0.056846950203180313,-0.030805360525846481,-0.10035886615514755,0.021651985123753548,0.077620908617973328,-0.0094727184623479843,0.032552286982536316,0.10327737033367157,0.23309037089347839,0.15270267426967621,0.15746124088764191,0.3650667667388916,-0.034559193998575211,0.064568772912025452, 
  /* [9][0][][] */ 0.021808214485645294,0.055847879499197006,0.034855898469686508,0.21355246007442474,-0.16387751698493958,0.1698225736618042,0.071448229253292084,-0.02720562182366848,0.061322040855884552,0.14302195608615875,0.052466701716184616,-0.030285011976957321,-0.13034875690937042,-0.0060912999324500561,-0.23678074777126312,0.12220200896263123,0.11813199520111084,0.14387479424476624,0.11190970242023468,0.19600439071655273,0.076833702623844147,-0.035784270614385605,-0.1180545836687088,0.16978354752063751,-0.13893912732601166,0.011116473935544491,-0.094117738306522369,-0.1598936915397644,0.063544727861881256,-0.10187850892543793, 0.073582544922828674,-0.13086917996406555,0.045482512563467026,0.19330824911594391,-0.026077082380652428,-0.032782625406980515,-0.013922244310379028,0.10493926703929901,-0.26580351591110229,0.21073213219642639,0.19417588412761688,-0.14614316821098328,0.09164775162935257,0.13307522237300873,-0.042356137186288834,0.10450870543718338,-0.11865424364805222,-0.059281144291162491,0.18927001953125,0.20929683744907379,0.093727476894855499,-0.15021248161792755,0.098684459924697876,-0.071401491761207581,-0.017482196912169456,-0.077135518193244934,-0.0043305051513016224,-0.14767163991928101,-0.015307295136153698,-0.026929633691906929, -0.042987614870071411,0.045749127864837646,-0.10325788706541061,0.2570052444934845,-0.15299798548221588,0.0046695135533809662,-0.20060423016548157,-0.048579543828964233,-0.23441807925701141,0.082896023988723755,-3.7209894799161702e-05,-0.10966594517230988,0.083486594259738922,0.023402392864227295,0.0060124327428638935,-0.054559897631406784,0.10664839297533035,-0.1537015438079834,-0.0079362541437149048,0.0044631506316363811,0.068855375051498413,0.091005608439445496,-0.043413609266281128,0.08205404132604599,-0.041846517473459244,0.059742935001850128,-0.20025813579559326,-0.25809821486473083,0.15054899454116821,-0.11123852431774139, 0.15265610814094543,0.0011500082910060883,-0.045570623129606247,0.10214474052190781,-0.17172139883041382,0.014290645718574524,0.083240911364555359,-0.00329194450750947,-0.18172259628772736,0.15984389185905457,0.11075766384601593,-0.13589684665203094,-0.13301843404769897,0.12885467708110809,-0.32375732064247131,0.17632779479026794,0.055602680891752243,-0.15444011986255646,0.30967926979064941,0.15005658566951752,0.13881412148475647,0.095296651124954224,0.015562839806079865,0.15184725821018219,0.029971545562148094,-0.043013624846935272,0.043395388871431351,-0.052399579435586929,0.068893052637577057,0.037894763052463531, -0.067228257656097412,-0.12214502692222595,0.10068973153829575,-0.083145372569561005,0.021018348634243011,-0.069460466504096985,-0.13498349487781525,0.21967978775501251,-0.18492251634597778,0.076665885746479034,-0.05555349588394165,-0.19341088831424713,-0.087766744196414948,-0.023084856569766998,-0.14089910686016083,0.10455241799354553,-0.1754593700170517,-0.063634663820266724,-0.045901406556367874,0.14353561401367188,0.07091715931892395,-0.027108374983072281,-0.015868708491325378,-0.024330237880349159,0.039763502776622772,-0.019000152125954628,-0.058885987848043442,-0.039310555905103683,-0.1176382303237915,0.20749025046825409, 
};
const TfArray<4, int> tensor_dimension9 = { 4, { 10,1,5,30 } };
const ALIGN(8) int32_t tensor_data10[4] = { 1, 1, 64, 16, };
const TfArray<1, int> tensor_dimension10 = { 1, { 4 } };
const ALIGN(8) int32_t tensor_data11[3] = { 1, 64, 30, };
const TfArray<1, int> tensor_dimension11 = { 1, { 3 } };
const ALIGN(8) int32_t tensor_data12[4] = { 1, 64, 1, 30, };
const TfArray<1, int> tensor_dimension12 = { 1, { 4 } };
const ALIGN(8) int32_t tensor_data13[4] = { 1, 1, 32, 30, };
const TfArray<1, int> tensor_dimension13 = { 1, { 4 } };
const ALIGN(8) int32_t tensor_data14[3] = { 1, 32, 10, };
const TfArray<1, int> tensor_dimension14 = { 1, { 3 } };
const ALIGN(8) int32_t tensor_data15[4] = { 1, 32, 1, 10, };
const TfArray<1, int> tensor_dimension15 = { 1, { 4 } };
const TfArray<4, int> tensor_dimension16 = { 4, { 1,1,64,16 } };
const TfArray<4, int> tensor_dimension17 = { 4, { 1,1,64,30 } };
const TfArray<3, int> tensor_dimension18 = { 3, { 1,64,30 } };
const TfArray<3, int> tensor_dimension19 = { 3, { 1,64,30 } };
const TfArray<4, int> tensor_dimension20 = { 4, { 1,64,1,30 } };
const TfArray<4, int> tensor_dimension21 = { 4, { 1,32,1,30 } };
const TfArray<4, int> tensor_dimension22 = { 4, { 1,1,32,30 } };
const TfArray<4, int> tensor_dimension23 = { 4, { 1,1,32,10 } };
const TfArray<3, int> tensor_dimension24 = { 3, { 1,32,10 } };
const TfArray<3, int> tensor_dimension25 = { 3, { 1,32,10 } };
const TfArray<4, int> tensor_dimension26 = { 4, { 1,32,1,10 } };
const TfArray<4, int> tensor_dimension27 = { 4, { 1,16,1,10 } };
const TfArray<2, int> tensor_dimension28 = { 2, { 1,160 } };
const TfArray<2, int> tensor_dimension29 = { 2, { 1,2 } };
const TfArray<2, int> tensor_dimension30 = { 2, { 1,2 } };
const TfLiteReshapeParams opdata0 = { { 0, 0, 0, 0, 0, 0, 0, 0, }, 0 };
const TfArray<2, int> inputs0 = { 2, { 0,10 } };
const TfArray<1, int> outputs0 = { 1, { 16 } };
const TfLiteConvParams opdata1 = { kTfLitePaddingSame, 1,1, kTfLiteActNone, 1,1 };
const TfArray<3, int> inputs1 = { 3, { 16,7,6 } };
const TfArray<1, int> outputs1 = { 1, { 17 } };
const TfLiteReshapeParams opdata2 = { { 0, 0, 0, 0, 0, 0, 0, 0, }, 0 };
const TfArray<2, int> inputs2 = { 2, { 17,11 } };
const TfArray<1, int> outputs2 = { 1, { 18 } };
const TfLiteAddParams opdata3 = { kTfLiteActRelu };
const TfArray<2, int> inputs3 = { 2, { 18,2 } };
const TfArray<1, int> outputs3 = { 1, { 19 } };
const TfLiteReshapeParams opdata4 = { { 0, 0, 0, 0, 0, 0, 0, 0, }, 0 };
const TfArray<2, int> inputs4 = { 2, { 19,12 } };
const TfArray<1, int> outputs4 = { 1, { 20 } };
const TfLitePoolParams opdata5 = { kTfLitePaddingSame, 1,2, 1,2, kTfLiteActNone, { { 0,0, 0, 0 } } };
const TfArray<1, int> inputs5 = { 1, { 20 } };
const TfArray<1, int> outputs5 = { 1, { 21 } };
const TfLiteReshapeParams opdata6 = { { 0, 0, 0, 0, 0, 0, 0, 0, }, 0 };
const TfArray<2, int> inputs6 = { 2, { 21,13 } };
const TfArray<1, int> outputs6 = { 1, { 22 } };
const TfLiteConvParams opdata7 = { kTfLitePaddingSame, 1,1, kTfLiteActNone, 1,1 };
const TfArray<3, int> inputs7 = { 3, { 22,9,8 } };
const TfArray<1, int> outputs7 = { 1, { 23 } };
const TfLiteReshapeParams opdata8 = { { 0, 0, 0, 0, 0, 0, 0, 0, }, 0 };
const TfArray<2, int> inputs8 = { 2, { 23,14 } };
const TfArray<1, int> outputs8 = { 1, { 24 } };
const TfLiteAddParams opdata9 = { kTfLiteActRelu };
const TfArray<2, int> inputs9 = { 2, { 24,3 } };
const TfArray<1, int> outputs9 = { 1, { 25 } };
const TfLiteReshapeParams opdata10 = { { 0, 0, 0, 0, 0, 0, 0, 0, }, 0 };
const TfArray<2, int> inputs10 = { 2, { 25,15 } };
const TfArray<1, int> outputs10 = { 1, { 26 } };
const TfLitePoolParams opdata11 = { kTfLitePaddingSame, 1,2, 1,2, kTfLiteActNone, { { 0,0, 0, 0 } } };
const TfArray<1, int> inputs11 = { 1, { 26 } };
const TfArray<1, int> outputs11 = { 1, { 27 } };
const TfLiteReshapeParams opdata12 = { { 0, 0, 0, 0, 0, 0, 0, 0, }, 0 };
const TfArray<2, int> inputs12 = { 2, { 27,1 } };
const TfArray<1, int> outputs12 = { 1, { 28 } };
const TfLiteFullyConnectedParams opdata13 = { kTfLiteActNone, kTfLiteFullyConnectedWeightsFormatDefault, false, false };
const TfArray<3, int> inputs13 = { 3, { 28,5,4 } };
const TfArray<1, int> outputs13 = { 1, { 29 } };
const TfLiteSoftmaxParams opdata14 = { 1 };
const TfArray<1, int> inputs14 = { 1, { 29 } };
const TfArray<1, int> outputs14 = { 1, { 30 } };
const TensorInfo_t tensorData[] = {
  { kTfLiteArenaRw, kTfLiteFloat32, tensor_arena + 4096, (TfLiteIntArray*)&tensor_dimension0, 4096, },
  { kTfLiteMmapRo, kTfLiteInt32, (void*)tensor_data1, (TfLiteIntArray*)&tensor_dimension1, 8, },
  { kTfLiteMmapRo, kTfLiteFloat32, (void*)tensor_data2, (TfLiteIntArray*)&tensor_dimension2, 120, },
  { kTfLiteMmapRo, kTfLiteFloat32, (void*)tensor_data3, (TfLiteIntArray*)&tensor_dimension3, 40, },
